digraph Tree {
node [shape=box, fontname="helvetica"] ;
edge [fontname="helvetica"] ;
0 [label="sslfinal_state <= 0.5\ngini = 0.494\nsamples = 8322\nvalue = [3691, 4631]"] ;
1 [label="url_of_anchor <= -0.5\ngini = 0.206\nsamples = 3584\nvalue = [3165, 419]"] ;
0 -> 1 [labeldistance=2.5, labelangle=45, headlabel="True"] ;
2 [label="redirect <= -0.5\ngini = 0.007\nsamples = 2285\nvalue = [2277, 8]"] ;
1 -> 2 ;
3 [label="favicon <= 0.0\ngini = 0.48\nsamples = 20\nvalue = [12, 8]"] ;
2 -> 3 ;
4 [label="gini = 0.0\nsamples = 9\nvalue = [9, 0]"] ;
3 -> 4 ;
5 [label="sfh <= 0.0\ngini = 0.397\nsamples = 11\nvalue = [3, 8]"] ;
3 -> 5 ;
6 [label="links_in_tags <= 0.0\ngini = 0.219\nsamples = 8\nvalue = [1, 7]"] ;
5 -> 6 ;
7 [label="gini = 0.0\nsamples = 5\nvalue = [0, 5]"] ;
6 -> 7 ;
8 [label="prefix_suffix <= 0.0\ngini = 0.444\nsamples = 3\nvalue = [1, 2]"] ;
6 -> 8 ;
9 [label="gini = 0.5\nsamples = 2\nvalue = [1, 1]"] ;
8 -> 9 ;
10 [label="gini = 0.0\nsamples = 1\nvalue = [0, 1]"] ;
8 -> 10 ;
11 [label="prefix_suffix <= 0.0\ngini = 0.444\nsamples = 3\nvalue = [2, 1]"] ;
5 -> 11 ;
12 [label="gini = 0.0\nsamples = 2\nvalue = [2, 0]"] ;
11 -> 12 ;
13 [label="gini = 0.0\nsamples = 1\nvalue = [0, 1]"] ;
11 -> 13 ;
14 [label="gini = 0.0\nsamples = 2265\nvalue = [2265, 0]"] ;
2 -> 14 ;
15 [label="links_in_tags <= -0.5\ngini = 0.433\nsamples = 1299\nvalue = [888, 411]"] ;
1 -> 15 ;
16 [label="prefix_suffix <= 0.0\ngini = 0.24\nsamples = 667\nvalue = [574, 93]"] ;
15 -> 16 ;
17 [label="popupwindow <= 0.0\ngini = 0.209\nsamples = 651\nvalue = [574, 77]"] ;
16 -> 17 ;
18 [label="sfh <= -0.5\ngini = 0.418\nsamples = 47\nvalue = [33, 14]"] ;
17 -> 18 ;
19 [label="url_length <= 0.5\ngini = 0.289\nsamples = 40\nvalue = [33, 7]"] ;
18 -> 19 ;
20 [label="favicon <= 0.0\ngini = 0.161\nsamples = 34\nvalue = [31, 3]"] ;
19 -> 20 ;
21 [label="having_sub_domain <= -0.5\ngini = 0.114\nsamples = 33\nvalue = [31, 2]"] ;
20 -> 21 ;
22 [label="dnsrecord <= 0.0\ngini = 0.298\nsamples = 11\nvalue = [9, 2]"] ;
21 -> 22 ;
23 [label="gini = 0.0\nsamples = 8\nvalue = [8, 0]"] ;
22 -> 23 ;
24 [label="age_of_domain <= 0.0\ngini = 0.444\nsamples = 3\nvalue = [1, 2]"] ;
22 -> 24 ;
25 [label="gini = 0.0\nsamples = 1\nvalue = [1, 0]"] ;
24 -> 25 ;
26 [label="gini = 0.0\nsamples = 2\nvalue = [0, 2]"] ;
24 -> 26 ;
27 [label="gini = 0.0\nsamples = 22\nvalue = [22, 0]"] ;
21 -> 27 ;
28 [label="gini = 0.0\nsamples = 1\nvalue = [0, 1]"] ;
20 -> 28 ;
29 [label="abnormal_url <= 0.0\ngini = 0.444\nsamples = 6\nvalue = [2, 4]"] ;
19 -> 29 ;
30 [label="gini = 0.0\nsamples = 2\nvalue = [2, 0]"] ;
29 -> 30 ;
31 [label="gini = 0.0\nsamples = 4\nvalue = [0, 4]"] ;
29 -> 31 ;
32 [label="gini = 0.0\nsamples = 7\nvalue = [0, 7]"] ;
18 -> 32 ;
33 [label="domain_registration_length <= 0.0\ngini = 0.187\nsamples = 604\nvalue = [541, 63]"] ;
17 -> 33 ;
34 [label="having_sub_domain <= 0.5\ngini = 0.12\nsamples = 264\nvalue = [247, 17]"] ;
33 -> 34 ;
35 [label="dnsrecord <= 0.0\ngini = 0.076\nsamples = 203\nvalue = [195, 8]"] ;
34 -> 35 ;
36 [label="gini = 0.0\nsamples = 55\nvalue = [55, 0]"] ;
35 -> 36 ;
37 [label="having_ip_address <= 0.0\ngini = 0.102\nsamples = 148\nvalue = [140, 8]"] ;
35 -> 37 ;
38 [label="having_at_symbol <= 0.0\ngini = 0.032\nsamples = 62\nvalue = [61, 1]"] ;
37 -> 38 ;
39 [label="sfh <= -0.5\ngini = 0.153\nsamples = 12\nvalue = [11, 1]"] ;
38 -> 39 ;
40 [label="gini = 0.0\nsamples = 10\nvalue = [10, 0]"] ;
39 -> 40 ;
41 [label="request_url <= 0.0\ngini = 0.5\nsamples = 2\nvalue = [1, 1]"] ;
39 -> 41 ;
42 [label="gini = 0.0\nsamples = 1\nvalue = [0, 1]"] ;
41 -> 42 ;
43 [label="gini = 0.0\nsamples = 1\nvalue = [1, 0]"] ;
41 -> 43 ;
44 [label="gini = 0.0\nsamples = 50\nvalue = [50, 0]"] ;
38 -> 44 ;
45 [label="request_url <= 0.0\ngini = 0.15\nsamples = 86\nvalue = [79.0, 7.0]"] ;
37 -> 45 ;
46 [label="having_at_symbol <= 0.0\ngini = 0.045\nsamples = 43\nvalue = [42, 1]"] ;
45 -> 46 ;
47 [label="web_traffic <= 0.5\ngini = 0.32\nsamples = 5\nvalue = [4, 1]"] ;
46 -> 47 ;
48 [label="gini = 0.0\nsamples = 4\nvalue = [4, 0]"] ;
47 -> 48 ;
49 [label="gini = 0.0\nsamples = 1\nvalue = [0, 1]"] ;
47 -> 49 ;
50 [label="gini = 0.0\nsamples = 38\nvalue = [38, 0]"] ;
46 -> 50 ;
51 [label="web_traffic <= 0.5\ngini = 0.24\nsamples = 43\nvalue = [37, 6]"] ;
45 -> 51 ;
52 [label="sfh <= -0.5\ngini = 0.355\nsamples = 26\nvalue = [20, 6]"] ;
51 -> 52 ;
53 [label="url_of_anchor <= 0.5\ngini = 0.42\nsamples = 20\nvalue = [14, 6]"] ;
52 -> 53 ;
54 [label="redirect <= 0.5\ngini = 0.457\nsamples = 17\nvalue = [11, 6]"] ;
53 -> 54 ;
55 [label="sslfinal_state <= -0.5\ngini = 0.43\nsamples = 16\nvalue = [11, 5]"] ;
54 -> 55 ;
56 [label="submitting_to_email <= 0.0\ngini = 0.459\nsamples = 14\nvalue = [9, 5]"] ;
55 -> 56 ;
57 [label="gini = 0.0\nsamples = 2\nvalue = [2, 0]"] ;
56 -> 57 ;
58 [label="web_traffic <= -0.5\ngini = 0.486\nsamples = 12\nvalue = [7, 5]"] ;
56 -> 58 ;
59 [label="gini = 0.0\nsamples = 2\nvalue = [0, 2]"] ;
58 -> 59 ;
60 [label="age_of_domain <= 0.0\ngini = 0.42\nsamples = 10\nvalue = [7, 3]"] ;
58 -> 60 ;
61 [label="having_sub_domain <= -0.5\ngini = 0.469\nsamples = 8\nvalue = [5, 3]"] ;
60 -> 61 ;
62 [label="gini = 0.444\nsamples = 6\nvalue = [4, 2]"] ;
61 -> 62 ;
63 [label="gini = 0.5\nsamples = 2\nvalue = [1, 1]"] ;
61 -> 63 ;
64 [label="gini = 0.0\nsamples = 2\nvalue = [2, 0]"] ;
60 -> 64 ;
65 [label="gini = 0.0\nsamples = 2\nvalue = [2, 0]"] ;
55 -> 65 ;
66 [label="gini = 0.0\nsamples = 1\nvalue = [0, 1]"] ;
54 -> 66 ;
67 [label="gini = 0.0\nsamples = 3\nvalue = [3, 0]"] ;
53 -> 67 ;
68 [label="gini = 0.0\nsamples = 6\nvalue = [6, 0]"] ;
52 -> 68 ;
69 [label="gini = 0.0\nsamples = 17\nvalue = [17, 0]"] ;
51 -> 69 ;
70 [label="sslfinal_state <= -0.5\ngini = 0.252\nsamples = 61\nvalue = [52, 9]"] ;
34 -> 70 ;
71 [label="request_url <= 0.0\ngini = 0.089\nsamples = 43\nvalue = [41, 2]"] ;
70 -> 71 ;
72 [label="web_traffic <= 0.5\ngini = 0.18\nsamples = 20\nvalue = [18, 2]"] ;
71 -> 72 ;
73 [label="https_token <= 0.0\ngini = 0.278\nsamples = 12\nvalue = [10, 2]"] ;
72 -> 73 ;
74 [label="gini = 0.0\nsamples = 5\nvalue = [5, 0]"] ;
73 -> 74 ;
75 [label="sfh <= 0.0\ngini = 0.408\nsamples = 7\nvalue = [5, 2]"] ;
73 -> 75 ;
76 [label="submitting_to_email <= 0.0\ngini = 0.48\nsamples = 5\nvalue = [3, 2]"] ;
75 -> 76 ;
77 [label="gini = 0.0\nsamples = 2\nvalue = [2, 0]"] ;
76 -> 77 ;
78 [label="having_ip_address <= 0.0\ngini = 0.444\nsamples = 3\nvalue = [1, 2]"] ;
76 -> 78 ;
79 [label="gini = 0.0\nsamples = 1\nvalue = [0, 1]"] ;
78 -> 79 ;
80 [label="gini = 0.5\nsamples = 2\nvalue = [1, 1]"] ;
78 -> 80 ;
81 [label="gini = 0.0\nsamples = 2\nvalue = [2, 0]"] ;
75 -> 81 ;
82 [label="gini = 0.0\nsamples = 8\nvalue = [8, 0]"] ;
72 -> 82 ;
83 [label="gini = 0.0\nsamples = 23\nvalue = [23, 0]"] ;
71 -> 83 ;
84 [label="web_traffic <= 0.5\ngini = 0.475\nsamples = 18\nvalue = [11, 7]"] ;
70 -> 84 ;
85 [label="gini = 0.0\nsamples = 7\nvalue = [7, 0]"] ;
84 -> 85 ;
86 [label="having_at_symbol <= 0.0\ngini = 0.463\nsamples = 11\nvalue = [4, 7]"] ;
84 -> 86 ;
87 [label="gini = 0.0\nsamples = 2\nvalue = [2, 0]"] ;
86 -> 87 ;
88 [label="request_url <= 0.0\ngini = 0.346\nsamples = 9\nvalue = [2, 7]"] ;
86 -> 88 ;
89 [label="gini = 0.0\nsamples = 2\nvalue = [2, 0]"] ;
88 -> 89 ;
90 [label="gini = 0.0\nsamples = 7\nvalue = [0, 7]"] ;
88 -> 90 ;
91 [label="sslfinal_state <= -0.5\ngini = 0.234\nsamples = 340\nvalue = [294, 46]"] ;
33 -> 91 ;
92 [label="web_traffic <= 0.5\ngini = 0.263\nsamples = 295\nvalue = [249, 46]"] ;
91 -> 92 ;
93 [label="https_token <= 0.0\ngini = 0.183\nsamples = 137\nvalue = [123, 14]"] ;
92 -> 93 ;
94 [label="url_length <= -0.5\ngini = 0.49\nsamples = 14\nvalue = [6, 8]"] ;
93 -> 94 ;
95 [label="gini = 0.0\nsamples = 8\nvalue = [0, 8]"] ;
94 -> 95 ;
96 [label="gini = 0.0\nsamples = 6\nvalue = [6, 0]"] ;
94 -> 96 ;
97 [label="having_sub_domain <= 0.5\ngini = 0.093\nsamples = 123\nvalue = [117, 6]"] ;
93 -> 97 ;
98 [label="sfh <= 0.5\ngini = 0.019\nsamples = 102\nvalue = [101, 1]"] ;
97 -> 98 ;
99 [label="gini = 0.0\nsamples = 93\nvalue = [93, 0]"] ;
98 -> 99 ;
100 [label="age_of_domain <= 0.0\ngini = 0.198\nsamples = 9\nvalue = [8, 1]"] ;
98 -> 100 ;
101 [label="gini = 0.0\nsamples = 8\nvalue = [8, 0]"] ;
100 -> 101 ;
102 [label="gini = 0.0\nsamples = 1\nvalue = [0, 1]"] ;
100 -> 102 ;
103 [label="dnsrecord <= 0.0\ngini = 0.363\nsamples = 21\nvalue = [16, 5]"] ;
97 -> 103 ;
104 [label="gini = 0.0\nsamples = 9\nvalue = [9, 0]"] ;
103 -> 104 ;
105 [label="web_traffic <= -0.5\ngini = 0.486\nsamples = 12\nvalue = [7, 5]"] ;
103 -> 105 ;
106 [label="having_ip_address <= 0.0\ngini = 0.375\nsamples = 4\nvalue = [1, 3]"] ;
105 -> 106 ;
107 [label="gini = 0.444\nsamples = 3\nvalue = [1, 2]"] ;
106 -> 107 ;
108 [label="gini = 0.0\nsamples = 1\nvalue = [0, 1]"] ;
106 -> 108 ;
109 [label="having_at_symbol <= 0.0\ngini = 0.375\nsamples = 8\nvalue = [6, 2]"] ;
105 -> 109 ;
110 [label="gini = 0.0\nsamples = 1\nvalue = [0, 1]"] ;
109 -> 110 ;
111 [label="age_of_domain <= 0.0\ngini = 0.245\nsamples = 7\nvalue = [6, 1]"] ;
109 -> 111 ;
112 [label="gini = 0.0\nsamples = 2\nvalue = [2, 0]"] ;
111 -> 112 ;
113 [label="having_ip_address <= 0.0\ngini = 0.32\nsamples = 5\nvalue = [4, 1]"] ;
111 -> 113 ;
114 [label="double_slash_redirecting <= 0.0\ngini = 0.375\nsamples = 4\nvalue = [3, 1]"] ;
113 -> 114 ;
115 [label="gini = 0.0\nsamples = 1\nvalue = [1, 0]"] ;
114 -> 115 ;
116 [label="gini = 0.444\nsamples = 3\nvalue = [2, 1]"] ;
114 -> 116 ;
117 [label="gini = 0.0\nsamples = 1\nvalue = [1, 0]"] ;
113 -> 117 ;
118 [label="redirect <= 0.5\ngini = 0.323\nsamples = 158\nvalue = [126, 32]"] ;
92 -> 118 ;
119 [label="dnsrecord <= 0.0\ngini = 0.346\nsamples = 144\nvalue = [112, 32]"] ;
118 -> 119 ;
120 [label="request_url <= 0.0\ngini = 0.426\nsamples = 39\nvalue = [27, 12]"] ;
119 -> 120 ;
121 [label="age_of_domain <= 0.0\ngini = 0.463\nsamples = 33\nvalue = [21, 12]"] ;
120 -> 121 ;
122 [label="having_sub_domain <= -0.5\ngini = 0.337\nsamples = 14\nvalue = [11, 3]"] ;
121 -> 122 ;
123 [label="gini = 0.0\nsamples = 7\nvalue = [7, 0]"] ;
122 -> 123 ;
124 [label="having_sub_domain <= 0.5\ngini = 0.49\nsamples = 7\nvalue = [4, 3]"] ;
122 -> 124 ;
125 [label="gini = 0.48\nsamples = 5\nvalue = [2, 3]"] ;
124 -> 125 ;
126 [label="gini = 0.0\nsamples = 2\nvalue = [2, 0]"] ;
124 -> 126 ;
127 [label="having_sub_domain <= 0.5\ngini = 0.499\nsamples = 19\nvalue = [10, 9]"] ;
121 -> 127 ;
128 [label="having_sub_domain <= -0.5\ngini = 0.496\nsamples = 11\nvalue = [5, 6]"] ;
127 -> 128 ;
129 [label="gini = 0.5\nsamples = 6\nvalue = [3, 3]"] ;
128 -> 129 ;
130 [label="gini = 0.48\nsamples = 5\nvalue = [2, 3]"] ;
128 -> 130 ;
131 [label="gini = 0.469\nsamples = 8\nvalue = [5, 3]"] ;
127 -> 131 ;
132 [label="gini = 0.0\nsamples = 6\nvalue = [6, 0]"] ;
120 -> 132 ;
133 [label="age_of_domain <= 0.0\ngini = 0.308\nsamples = 105\nvalue = [85, 20]"] ;
119 -> 133 ;
134 [label="having_at_symbol <= 0.0\ngini = 0.383\nsamples = 58\nvalue = [43.0, 15.0]"] ;
133 -> 134 ;
135 [label="gini = 0.0\nsamples = 1\nvalue = [0, 1]"] ;
134 -> 135 ;
136 [label="request_url <= 0.0\ngini = 0.371\nsamples = 57\nvalue = [43, 14]"] ;
134 -> 136 ;
137 [label="having_ip_address <= 0.0\ngini = 0.308\nsamples = 42\nvalue = [34, 8]"] ;
136 -> 137 ;
138 [label="double_slash_redirecting <= 0.0\ngini = 0.42\nsamples = 20\nvalue = [14, 6]"] ;
137 -> 138 ;
139 [label="gini = 0.0\nsamples = 4\nvalue = [4, 0]"] ;
138 -> 139 ;
140 [label="having_sub_domain <= -0.5\ngini = 0.469\nsamples = 16\nvalue = [10, 6]"] ;
138 -> 140 ;
141 [label="gini = 0.0\nsamples = 1\nvalue = [0, 1]"] ;
140 -> 141 ;
142 [label="url_length <= -0.5\ngini = 0.444\nsamples = 15\nvalue = [10, 5]"] ;
140 -> 142 ;
143 [label="gini = 0.459\nsamples = 14\nvalue = [9, 5]"] ;
142 -> 143 ;
144 [label="gini = 0.0\nsamples = 1\nvalue = [1, 0]"] ;
142 -> 144 ;
145 [label="having_sub_domain <= -0.5\ngini = 0.165\nsamples = 22\nvalue = [20, 2]"] ;
137 -> 145 ;
146 [label="gini = 0.0\nsamples = 10\nvalue = [10, 0]"] ;
145 -> 146 ;
147 [label="having_sub_domain <= 0.5\ngini = 0.278\nsamples = 12\nvalue = [10, 2]"] ;
145 -> 147 ;
148 [label="submitting_to_email <= 0.0\ngini = 0.375\nsamples = 8\nvalue = [6, 2]"] ;
147 -> 148 ;
149 [label="gini = 0.0\nsamples = 1\nvalue = [1, 0]"] ;
148 -> 149 ;
150 [label="gini = 0.408\nsamples = 7\nvalue = [5, 2]"] ;
148 -> 150 ;
151 [label="gini = 0.0\nsamples = 4\nvalue = [4, 0]"] ;
147 -> 151 ;
152 [label="having_sub_domain <= 0.5\ngini = 0.48\nsamples = 15\nvalue = [9, 6]"] ;
136 -> 152 ;
153 [label="having_ip_address <= 0.0\ngini = 0.497\nsamples = 13\nvalue = [7, 6]"] ;
152 -> 153 ;
154 [label="gini = 0.0\nsamples = 2\nvalue = [2, 0]"] ;
153 -> 154 ;
155 [label="having_sub_domain <= -0.5\ngini = 0.496\nsamples = 11\nvalue = [5, 6]"] ;
153 -> 155 ;
156 [label="gini = 0.5\nsamples = 2\nvalue = [1, 1]"] ;
155 -> 156 ;
157 [label="gini = 0.494\nsamples = 9\nvalue = [4, 5]"] ;
155 -> 157 ;
158 [label="gini = 0.0\nsamples = 2\nvalue = [2, 0]"] ;
152 -> 158 ;
159 [label="having_at_symbol <= 0.0\ngini = 0.19\nsamples = 47\nvalue = [42, 5]"] ;
133 -> 159 ;
160 [label="having_sub_domain <= 0.0\ngini = 0.444\nsamples = 3\nvalue = [2, 1]"] ;
159 -> 160 ;
161 [label="gini = 0.0\nsamples = 1\nvalue = [1, 0]"] ;
160 -> 161 ;
162 [label="gini = 0.5\nsamples = 2\nvalue = [1, 1]"] ;
160 -> 162 ;
163 [label="having_sub_domain <= -0.5\ngini = 0.165\nsamples = 44\nvalue = [40, 4]"] ;
159 -> 163 ;
164 [label="having_ip_address <= 0.0\ngini = 0.32\nsamples = 10\nvalue = [8, 2]"] ;
163 -> 164 ;
165 [label="gini = 0.0\nsamples = 5\nvalue = [5, 0]"] ;
164 -> 165 ;
166 [label="sfh <= -0.5\ngini = 0.48\nsamples = 5\nvalue = [3, 2]"] ;
164 -> 166 ;
167 [label="url_of_anchor <= 0.5\ngini = 0.5\nsamples = 4\nvalue = [2, 2]"] ;
166 -> 167 ;
168 [label="gini = 0.444\nsamples = 3\nvalue = [1, 2]"] ;
167 -> 168 ;
169 [label="gini = 0.0\nsamples = 1\nvalue = [1, 0]"] ;
167 -> 169 ;
170 [label="gini = 0.0\nsamples = 1\nvalue = [1, 0]"] ;
166 -> 170 ;
171 [label="having_sub_domain <= 0.5\ngini = 0.111\nsamples = 34\nvalue = [32, 2]"] ;
163 -> 171 ;
172 [label="gini = 0.0\nsamples = 13\nvalue = [13, 0]"] ;
171 -> 172 ;
173 [label="having_ip_address <= 0.0\ngini = 0.172\nsamples = 21\nvalue = [19, 2]"] ;
171 -> 173 ;
174 [label="request_url <= 0.0\ngini = 0.245\nsamples = 14\nvalue = [12, 2]"] ;
173 -> 174 ;
175 [label="gini = 0.32\nsamples = 10\nvalue = [8, 2]"] ;
174 -> 175 ;
176 [label="gini = 0.0\nsamples = 4\nvalue = [4, 0]"] ;
174 -> 176 ;
177 [label="gini = 0.0\nsamples = 7\nvalue = [7, 0]"] ;
173 -> 177 ;
178 [label="gini = 0.0\nsamples = 14\nvalue = [14, 0]"] ;
118 -> 178 ;
179 [label="gini = 0.0\nsamples = 45\nvalue = [45, 0]"] ;
91 -> 179 ;
180 [label="gini = 0.0\nsamples = 16\nvalue = [0, 16]"] ;
16 -> 180 ;
181 [label="domain_registration_length <= 0.0\ngini = 0.5\nsamples = 632\nvalue = [314, 318]"] ;
15 -> 181 ;
182 [label="having_sub_domain <= -0.5\ngini = 0.469\nsamples = 426\nvalue = [160, 266]"] ;
181 -> 182 ;
183 [label="links_in_tags <= 0.5\ngini = 0.418\nsamples = 111\nvalue = [78, 33]"] ;
182 -> 183 ;
184 [label="url_length <= 0.0\ngini = 0.291\nsamples = 85\nvalue = [70.0, 15.0]"] ;
183 -> 184 ;
185 [label="prefix_suffix <= 0.0\ngini = 0.176\nsamples = 72\nvalue = [65, 7]"] ;
184 -> 185 ;
186 [label="sfh <= -0.5\ngini = 0.133\nsamples = 70\nvalue = [65, 5]"] ;
185 -> 186 ;
187 [label="web_traffic <= 0.5\ngini = 0.086\nsamples = 67\nvalue = [64, 3]"] ;
186 -> 187 ;
188 [label="gini = 0.0\nsamples = 41\nvalue = [41, 0]"] ;
187 -> 188 ;
189 [label="url_of_anchor <= 0.5\ngini = 0.204\nsamples = 26\nvalue = [23, 3]"] ;
187 -> 189 ;
190 [label="request_url <= 0.0\ngini = 0.1\nsamples = 19\nvalue = [18, 1]"] ;
189 -> 190 ;
191 [label="gini = 0.0\nsamples = 7\nvalue = [7, 0]"] ;
190 -> 191 ;
192 [label="submitting_to_email <= 0.0\ngini = 0.153\nsamples = 12\nvalue = [11, 1]"] ;
190 -> 192 ;
193 [label="gini = 0.0\nsamples = 3\nvalue = [3, 0]"] ;
192 -> 193 ;
194 [label="gini = 0.198\nsamples = 9\nvalue = [8, 1]"] ;
192 -> 194 ;
195 [label="dnsrecord <= 0.0\ngini = 0.408\nsamples = 7\nvalue = [5, 2]"] ;
189 -> 195 ;
196 [label="gini = 0.0\nsamples = 2\nvalue = [2, 0]"] ;
195 -> 196 ;
197 [label="having_ip_address <= 0.0\ngini = 0.48\nsamples = 5\nvalue = [3, 2]"] ;
195 -> 197 ;
198 [label="gini = 0.0\nsamples = 1\nvalue = [1, 0]"] ;
197 -> 198 ;
199 [label="gini = 0.5\nsamples = 4\nvalue = [2, 2]"] ;
197 -> 199 ;
200 [label="url_of_anchor <= 0.5\ngini = 0.444\nsamples = 3\nvalue = [1, 2]"] ;
186 -> 200 ;
201 [label="gini = 0.0\nsamples = 1\nvalue = [1, 0]"] ;
200 -> 201 ;
202 [label="gini = 0.0\nsamples = 2\nvalue = [0, 2]"] ;
200 -> 202 ;
203 [label="gini = 0.0\nsamples = 2\nvalue = [0, 2]"] ;
185 -> 203 ;
204 [label="sslfinal_state <= -0.5\ngini = 0.473\nsamples = 13\nvalue = [5, 8]"] ;
184 -> 204 ;
205 [label="age_of_domain <= 0.0\ngini = 0.397\nsamples = 11\nvalue = [3, 8]"] ;
204 -> 205 ;
206 [label="gini = 0.0\nsamples = 2\nvalue = [2, 0]"] ;
205 -> 206 ;
207 [label="redirect <= 0.5\ngini = 0.198\nsamples = 9\nvalue = [1, 8]"] ;
205 -> 207 ;
208 [label="gini = 0.0\nsamples = 8\nvalue = [0, 8]"] ;
207 -> 208 ;
209 [label="gini = 0.0\nsamples = 1\nvalue = [1, 0]"] ;
207 -> 209 ;
210 [label="gini = 0.0\nsamples = 2\nvalue = [2, 0]"] ;
204 -> 210 ;
211 [label="sslfinal_state <= -0.5\ngini = 0.426\nsamples = 26\nvalue = [8, 18]"] ;
183 -> 211 ;
212 [label="redirect <= 0.5\ngini = 0.34\nsamples = 23\nvalue = [5, 18]"] ;
211 -> 212 ;
213 [label="url_length <= 0.0\ngini = 0.298\nsamples = 22\nvalue = [4, 18]"] ;
212 -> 213 ;
214 [label="gini = 0.0\nsamples = 12\nvalue = [0, 12]"] ;
213 -> 214 ;
215 [label="having_at_symbol <= 0.0\ngini = 0.48\nsamples = 10\nvalue = [4, 6]"] ;
213 -> 215 ;
216 [label="web_traffic <= 0.5\ngini = 0.444\nsamples = 9\nvalue = [3, 6]"] ;
215 -> 216 ;
217 [label="gini = 0.0\nsamples = 1\nvalue = [0, 1]"] ;
216 -> 217 ;
218 [label="dnsrecord <= 0.0\ngini = 0.469\nsamples = 8\nvalue = [3, 5]"] ;
216 -> 218 ;
219 [label="gini = 0.0\nsamples = 1\nvalue = [1, 0]"] ;
218 -> 219 ;
220 [label="gini = 0.408\nsamples = 7\nvalue = [2, 5]"] ;
218 -> 220 ;
221 [label="gini = 0.0\nsamples = 1\nvalue = [1, 0]"] ;
215 -> 221 ;
222 [label="gini = 0.0\nsamples = 1\nvalue = [1, 0]"] ;
212 -> 222 ;
223 [label="gini = 0.0\nsamples = 3\nvalue = [3, 0]"] ;
211 -> 223 ;
224 [label="url_of_anchor <= 0.5\ngini = 0.385\nsamples = 315\nvalue = [82, 233]"] ;
182 -> 224 ;
225 [label="url_length <= 0.0\ngini = 0.46\nsamples = 198\nvalue = [71, 127]"] ;
224 -> 225 ;
226 [label="shortining_service <= 0.0\ngini = 0.497\nsamples = 143\nvalue = [66, 77]"] ;
225 -> 226 ;
227 [label="gini = 0.0\nsamples = 17\nvalue = [0, 17]"] ;
226 -> 227 ;
228 [label="having_ip_address <= 0.0\ngini = 0.499\nsamples = 126\nvalue = [66, 60]"] ;
226 -> 228 ;
229 [label="web_traffic <= -0.5\ngini = 0.368\nsamples = 37\nvalue = [28, 9]"] ;
228 -> 229 ;
230 [label="links_in_tags <= 0.5\ngini = 0.32\nsamples = 5\nvalue = [1, 4]"] ;
229 -> 230 ;
231 [label="submitting_to_email <= 0.0\ngini = 0.5\nsamples = 2\nvalue = [1, 1]"] ;
230 -> 231 ;
232 [label="gini = 0.0\nsamples = 1\nvalue = [1, 0]"] ;
231 -> 232 ;
233 [label="gini = 0.0\nsamples = 1\nvalue = [0, 1]"] ;
231 -> 233 ;
234 [label="gini = 0.0\nsamples = 3\nvalue = [0, 3]"] ;
230 -> 234 ;
235 [label="having_sub_domain <= 0.5\ngini = 0.264\nsamples = 32\nvalue = [27, 5]"] ;
229 -> 235 ;
236 [label="request_url <= 0.0\ngini = 0.142\nsamples = 26\nvalue = [24, 2]"] ;
235 -> 236 ;
237 [label="sfh <= -0.5\ngini = 0.375\nsamples = 8\nvalue = [6, 2]"] ;
236 -> 237 ;
238 [label="gini = 0.0\nsamples = 4\nvalue = [4, 0]"] ;
237 -> 238 ;
239 [label="web_traffic <= 0.5\ngini = 0.5\nsamples = 4\nvalue = [2, 2]"] ;
237 -> 239 ;
240 [label="gini = 0.0\nsamples = 2\nvalue = [2, 0]"] ;
239 -> 240 ;
241 [label="gini = 0.0\nsamples = 2\nvalue = [0, 2]"] ;
239 -> 241 ;
242 [label="gini = 0.0\nsamples = 18\nvalue = [18, 0]"] ;
236 -> 242 ;
243 [label="request_url <= 0.0\ngini = 0.5\nsamples = 6\nvalue = [3, 3]"] ;
235 -> 243 ;
244 [label="gini = 0.0\nsamples = 2\nvalue = [0, 2]"] ;
243 -> 244 ;
245 [label="age_of_domain <= 0.0\ngini = 0.375\nsamples = 4\nvalue = [3, 1]"] ;
243 -> 245 ;
246 [label="on_mouseover <= 0.0\ngini = 0.5\nsamples = 2\nvalue = [1, 1]"] ;
245 -> 246 ;
247 [label="gini = 0.0\nsamples = 1\nvalue = [1, 0]"] ;
246 -> 247 ;
248 [label="gini = 0.0\nsamples = 1\nvalue = [0, 1]"] ;
246 -> 248 ;
249 [label="gini = 0.0\nsamples = 2\nvalue = [2, 0]"] ;
245 -> 249 ;
250 [label="redirect <= 0.5\ngini = 0.489\nsamples = 89\nvalue = [38.0, 51.0]"] ;
228 -> 250 ;
251 [label="sslfinal_state <= -0.5\ngini = 0.458\nsamples = 79\nvalue = [28, 51]"] ;
250 -> 251 ;
252 [label="https_token <= 0.0\ngini = 0.421\nsamples = 73\nvalue = [22, 51]"] ;
251 -> 252 ;
253 [label="gini = 0.0\nsamples = 4\nvalue = [4, 0]"] ;
252 -> 253 ;
254 [label="dnsrecord <= 0.0\ngini = 0.386\nsamples = 69\nvalue = [18, 51]"] ;
252 -> 254 ;
255 [label="favicon <= 0.0\ngini = 0.497\nsamples = 13\nvalue = [7, 6]"] ;
254 -> 255 ;
256 [label="gini = 0.0\nsamples = 3\nvalue = [3, 0]"] ;
255 -> 256 ;
257 [label="age_of_domain <= 0.0\ngini = 0.48\nsamples = 10\nvalue = [4, 6]"] ;
255 -> 257 ;
258 [label="gini = 0.0\nsamples = 2\nvalue = [2, 0]"] ;
257 -> 258 ;
259 [label="links_in_tags <= 0.5\ngini = 0.375\nsamples = 8\nvalue = [2, 6]"] ;
257 -> 259 ;
260 [label="gini = 0.0\nsamples = 4\nvalue = [0, 4]"] ;
259 -> 260 ;
261 [label="web_traffic <= -0.5\ngini = 0.5\nsamples = 4\nvalue = [2, 2]"] ;
259 -> 261 ;
262 [label="gini = 0.0\nsamples = 2\nvalue = [0, 2]"] ;
261 -> 262 ;
263 [label="gini = 0.0\nsamples = 2\nvalue = [2, 0]"] ;
261 -> 263 ;
264 [label="request_url <= 0.0\ngini = 0.316\nsamples = 56\nvalue = [11, 45]"] ;
254 -> 264 ;
265 [label="age_of_domain <= 0.0\ngini = 0.5\nsamples = 8\nvalue = [4, 4]"] ;
264 -> 265 ;
266 [label="gini = 0.0\nsamples = 1\nvalue = [0, 1]"] ;
265 -> 266 ;
267 [label="having_sub_domain <= 0.5\ngini = 0.49\nsamples = 7\nvalue = [4, 3]"] ;
265 -> 267 ;
268 [label="sfh <= -0.5\ngini = 0.48\nsamples = 5\nvalue = [3, 2]"] ;
267 -> 268 ;
269 [label="gini = 0.5\nsamples = 4\nvalue = [2, 2]"] ;
268 -> 269 ;
270 [label="gini = 0.0\nsamples = 1\nvalue = [1, 0]"] ;
268 -> 270 ;
271 [label="sfh <= -0.5\ngini = 0.5\nsamples = 2\nvalue = [1, 1]"] ;
267 -> 271 ;
272 [label="gini = 0.0\nsamples = 1\nvalue = [1, 0]"] ;
271 -> 272 ;
273 [label="gini = 0.0\nsamples = 1\nvalue = [0, 1]"] ;
271 -> 273 ;
274 [label="web_traffic <= 0.5\ngini = 0.249\nsamples = 48\nvalue = [7, 41]"] ;
264 -> 274 ;
275 [label="having_sub_domain <= 0.5\ngini = 0.159\nsamples = 23\nvalue = [2, 21]"] ;
274 -> 275 ;
276 [label="iframe <= 0.0\ngini = 0.5\nsamples = 2\nvalue = [1, 1]"] ;
275 -> 276 ;
277 [label="gini = 0.0\nsamples = 1\nvalue = [0, 1]"] ;
276 -> 277 ;
278 [label="gini = 0.0\nsamples = 1\nvalue = [1, 0]"] ;
276 -> 278 ;
279 [label="links_in_tags <= 0.5\ngini = 0.091\nsamples = 21\nvalue = [1, 20]"] ;
275 -> 279 ;
280 [label="gini = 0.0\nsamples = 13\nvalue = [0, 13]"] ;
279 -> 280 ;
281 [label="web_traffic <= -0.5\ngini = 0.219\nsamples = 8\nvalue = [1, 7]"] ;
279 -> 281 ;
282 [label="gini = 0.0\nsamples = 3\nvalue = [0, 3]"] ;
281 -> 282 ;
283 [label="favicon <= 0.0\ngini = 0.32\nsamples = 5\nvalue = [1, 4]"] ;
281 -> 283 ;
284 [label="gini = 0.0\nsamples = 1\nvalue = [0, 1]"] ;
283 -> 284 ;
285 [label="age_of_domain <= 0.0\ngini = 0.375\nsamples = 4\nvalue = [1, 3]"] ;
283 -> 285 ;
286 [label="gini = 0.444\nsamples = 3\nvalue = [1, 2]"] ;
285 -> 286 ;
287 [label="gini = 0.0\nsamples = 1\nvalue = [0, 1]"] ;
285 -> 287 ;
288 [label="having_sub_domain <= 0.5\ngini = 0.32\nsamples = 25\nvalue = [5, 20]"] ;
274 -> 288 ;
289 [label="links_in_tags <= 0.5\ngini = 0.165\nsamples = 22\nvalue = [2, 20]"] ;
288 -> 289 ;
290 [label="prefix_suffix <= 0.0\ngini = 0.198\nsamples = 18\nvalue = [2, 16]"] ;
289 -> 290 ;
291 [label="popupwindow <= 0.0\ngini = 0.231\nsamples = 15\nvalue = [2, 13]"] ;
290 -> 291 ;
292 [label="gini = 0.0\nsamples = 1\nvalue = [0, 1]"] ;
291 -> 292 ;
293 [label="having_at_symbol <= 0.0\ngini = 0.245\nsamples = 14\nvalue = [2, 12]"] ;
291 -> 293 ;
294 [label="gini = 0.0\nsamples = 1\nvalue = [0, 1]"] ;
293 -> 294 ;
295 [label="age_of_domain <= 0.0\ngini = 0.26\nsamples = 13\nvalue = [2, 11]"] ;
293 -> 295 ;
296 [label="gini = 0.245\nsamples = 7\nvalue = [1, 6]"] ;
295 -> 296 ;
297 [label="gini = 0.278\nsamples = 6\nvalue = [1, 5]"] ;
295 -> 297 ;
298 [label="gini = 0.0\nsamples = 3\nvalue = [0, 3]"] ;
290 -> 298 ;
299 [label="gini = 0.0\nsamples = 4\nvalue = [0, 4]"] ;
289 -> 299 ;
300 [label="gini = 0.0\nsamples = 3\nvalue = [3, 0]"] ;
288 -> 300 ;
301 [label="gini = 0.0\nsamples = 6\nvalue = [6, 0]"] ;
251 -> 301 ;
302 [label="gini = 0.0\nsamples = 10\nvalue = [10, 0]"] ;
250 -> 302 ;
303 [label="double_slash_redirecting <= 0.0\ngini = 0.165\nsamples = 55\nvalue = [5, 50]"] ;
225 -> 303 ;
304 [label="gini = 0.0\nsamples = 2\nvalue = [2, 0]"] ;
303 -> 304 ;
305 [label="web_traffic <= -0.5\ngini = 0.107\nsamples = 53\nvalue = [3, 50]"] ;
303 -> 305 ;
306 [label="dnsrecord <= 0.0\ngini = 0.48\nsamples = 5\nvalue = [2, 3]"] ;
305 -> 306 ;
307 [label="gini = 0.0\nsamples = 1\nvalue = [1, 0]"] ;
306 -> 307 ;
308 [label="having_ip_address <= 0.0\ngini = 0.375\nsamples = 4\nvalue = [1, 3]"] ;
306 -> 308 ;
309 [label="gini = 0.0\nsamples = 1\nvalue = [1, 0]"] ;
308 -> 309 ;
310 [label="gini = 0.0\nsamples = 3\nvalue = [0, 3]"] ;
308 -> 310 ;
311 [label="links_in_tags <= 0.5\ngini = 0.041\nsamples = 48\nvalue = [1, 47]"] ;
305 -> 311 ;
312 [label="gini = 0.0\nsamples = 37\nvalue = [0, 37]"] ;
311 -> 312 ;
313 [label="having_sub_domain <= 0.5\ngini = 0.165\nsamples = 11\nvalue = [1, 10]"] ;
311 -> 313 ;
314 [label="gini = 0.0\nsamples = 8\nvalue = [0, 8]"] ;
313 -> 314 ;
315 [label="web_traffic <= 0.5\ngini = 0.444\nsamples = 3\nvalue = [1, 2]"] ;
313 -> 315 ;
316 [label="gini = 0.0\nsamples = 2\nvalue = [0, 2]"] ;
315 -> 316 ;
317 [label="gini = 0.0\nsamples = 1\nvalue = [1, 0]"] ;
315 -> 317 ;
318 [label="sslfinal_state <= -0.5\ngini = 0.17\nsamples = 117\nvalue = [11, 106]"] ;
224 -> 318 ;
319 [label="on_mouseover <= 0.0\ngini = 0.101\nsamples = 112\nvalue = [6, 106]"] ;
318 -> 319 ;
320 [label="gini = 0.0\nsamples = 2\nvalue = [2, 0]"] ;
319 -> 320 ;
321 [label="web_traffic <= -0.5\ngini = 0.07\nsamples = 110\nvalue = [4, 106]"] ;
319 -> 321 ;
322 [label="redirect <= 0.5\ngini = 0.26\nsamples = 13\nvalue = [2, 11]"] ;
321 -> 322 ;
323 [label="dnsrecord <= 0.0\ngini = 0.153\nsamples = 12\nvalue = [1, 11]"] ;
322 -> 323 ;
324 [label="gini = 0.0\nsamples = 8\nvalue = [0, 8]"] ;
323 -> 324 ;
325 [label="having_sub_domain <= 0.5\ngini = 0.375\nsamples = 4\nvalue = [1, 3]"] ;
323 -> 325 ;
326 [label="gini = 0.0\nsamples = 1\nvalue = [1, 0]"] ;
325 -> 326 ;
327 [label="gini = 0.0\nsamples = 3\nvalue = [0, 3]"] ;
325 -> 327 ;
328 [label="gini = 0.0\nsamples = 1\nvalue = [1, 0]"] ;
322 -> 328 ;
329 [label="age_of_domain <= 0.0\ngini = 0.04\nsamples = 97\nvalue = [2, 95]"] ;
321 -> 329 ;
330 [label="links_in_tags <= 0.5\ngini = 0.097\nsamples = 39\nvalue = [2, 37]"] ;
329 -> 330 ;
331 [label="redirect <= 0.5\ngini = 0.172\nsamples = 21\nvalue = [2, 19]"] ;
330 -> 331 ;
332 [label="having_sub_domain <= 0.5\ngini = 0.1\nsamples = 19\nvalue = [1, 18]"] ;
331 -> 332 ;
333 [label="gini = 0.0\nsamples = 13\nvalue = [0, 13]"] ;
332 -> 333 ;
334 [label="having_ip_address <= 0.0\ngini = 0.278\nsamples = 6\nvalue = [1, 5]"] ;
332 -> 334 ;
335 [label="request_url <= 0.0\ngini = 0.5\nsamples = 2\nvalue = [1, 1]"] ;
334 -> 335 ;
336 [label="gini = 0.0\nsamples = 1\nvalue = [0, 1]"] ;
335 -> 336 ;
337 [label="gini = 0.0\nsamples = 1\nvalue = [1, 0]"] ;
335 -> 337 ;
338 [label="gini = 0.0\nsamples = 4\nvalue = [0, 4]"] ;
334 -> 338 ;
339 [label="abnormal_url <= 0.0\ngini = 0.5\nsamples = 2\nvalue = [1, 1]"] ;
331 -> 339 ;
340 [label="gini = 0.0\nsamples = 1\nvalue = [0, 1]"] ;
339 -> 340 ;
341 [label="gini = 0.0\nsamples = 1\nvalue = [1, 0]"] ;
339 -> 341 ;
342 [label="gini = 0.0\nsamples = 18\nvalue = [0, 18]"] ;
330 -> 342 ;
343 [label="gini = 0.0\nsamples = 58\nvalue = [0, 58]"] ;
329 -> 343 ;
344 [label="gini = 0.0\nsamples = 5\nvalue = [5, 0]"] ;
318 -> 344 ;
345 [label="prefix_suffix <= 0.0\ngini = 0.377\nsamples = 206\nvalue = [154, 52]"] ;
181 -> 345 ;
346 [label="sslfinal_state <= -0.5\ngini = 0.341\nsamples = 197\nvalue = [154, 43]"] ;
345 -> 346 ;
347 [label="sfh <= -0.5\ngini = 0.371\nsamples = 175\nvalue = [132, 43]"] ;
346 -> 347 ;
348 [label="favicon <= 0.0\ngini = 0.318\nsamples = 146\nvalue = [117, 29]"] ;
347 -> 348 ;
349 [label="gini = 0.0\nsamples = 6\nvalue = [6, 0]"] ;
348 -> 349 ;
350 [label="url_length <= -0.5\ngini = 0.328\nsamples = 140\nvalue = [111.0, 29.0]"] ;
348 -> 350 ;
351 [label="links_in_tags <= 0.5\ngini = 0.337\nsamples = 135\nvalue = [106, 29]"] ;
350 -> 351 ;
352 [label="double_slash_redirecting <= 0.0\ngini = 0.36\nsamples = 106\nvalue = [81, 25]"] ;
351 -> 352 ;
353 [label="gini = 0.0\nsamples = 3\nvalue = [3, 0]"] ;
352 -> 353 ;
354 [label="age_of_domain <= 0.0\ngini = 0.368\nsamples = 103\nvalue = [78, 25]"] ;
352 -> 354 ;
355 [label="web_traffic <= 0.5\ngini = 0.346\nsamples = 63\nvalue = [49, 14]"] ;
354 -> 355 ;
356 [label="gini = 0.0\nsamples = 14\nvalue = [14, 0]"] ;
355 -> 356 ;
357 [label="request_url <= 0.0\ngini = 0.408\nsamples = 49\nvalue = [35, 14]"] ;
355 -> 357 ;
358 [label="redirect <= 0.5\ngini = 0.475\nsamples = 31\nvalue = [19, 12]"] ;
357 -> 358 ;
359 [label="having_sub_domain <= -0.5\ngini = 0.49\nsamples = 28\nvalue = [16, 12]"] ;
358 -> 359 ;
360 [label="dnsrecord <= 0.0\ngini = 0.496\nsamples = 11\nvalue = [5, 6]"] ;
359 -> 360 ;
361 [label="gini = 0.0\nsamples = 2\nvalue = [2, 0]"] ;
360 -> 361 ;
362 [label="having_ip_address <= 0.0\ngini = 0.444\nsamples = 9\nvalue = [3, 6]"] ;
360 -> 362 ;
363 [label="gini = 0.0\nsamples = 2\nvalue = [0, 2]"] ;
362 -> 363 ;
364 [label="gini = 0.49\nsamples = 7\nvalue = [3, 4]"] ;
362 -> 364 ;
365 [label="dnsrecord <= 0.0\ngini = 0.457\nsamples = 17\nvalue = [11, 6]"] ;
359 -> 365 ;
366 [label="gini = 0.444\nsamples = 3\nvalue = [1, 2]"] ;
365 -> 366 ;
367 [label="having_ip_address <= 0.0\ngini = 0.408\nsamples = 14\nvalue = [10, 4]"] ;
365 -> 367 ;
368 [label="having_sub_domain <= 0.5\ngini = 0.48\nsamples = 10\nvalue = [6, 4]"] ;
367 -> 368 ;
369 [label="gini = 0.444\nsamples = 6\nvalue = [4, 2]"] ;
368 -> 369 ;
370 [label="gini = 0.5\nsamples = 4\nvalue = [2, 2]"] ;
368 -> 370 ;
371 [label="gini = 0.0\nsamples = 4\nvalue = [4, 0]"] ;
367 -> 371 ;
372 [label="gini = 0.0\nsamples = 3\nvalue = [3, 0]"] ;
358 -> 372 ;
373 [label="redirect <= 0.5\ngini = 0.198\nsamples = 18\nvalue = [16, 2]"] ;
357 -> 373 ;
374 [label="dnsrecord <= 0.0\ngini = 0.124\nsamples = 15\nvalue = [14, 1]"] ;
373 -> 374 ;
375 [label="gini = 0.32\nsamples = 5\nvalue = [4, 1]"] ;
374 -> 375 ;
376 [label="gini = 0.0\nsamples = 10\nvalue = [10, 0]"] ;
374 -> 376 ;
377 [label="having_sub_domain <= 0.5\ngini = 0.444\nsamples = 3\nvalue = [2, 1]"] ;
373 -> 377 ;
378 [label="having_ip_address <= 0.0\ngini = 0.5\nsamples = 2\nvalue = [1, 1]"] ;
377 -> 378 ;
379 [label="gini = 0.0\nsamples = 1\nvalue = [0, 1]"] ;
378 -> 379 ;
380 [label="gini = 0.0\nsamples = 1\nvalue = [1, 0]"] ;
378 -> 380 ;
381 [label="gini = 0.0\nsamples = 1\nvalue = [1, 0]"] ;
377 -> 381 ;
382 [label="web_traffic <= -0.5\ngini = 0.399\nsamples = 40\nvalue = [29, 11]"] ;
354 -> 382 ;
383 [label="gini = 0.0\nsamples = 5\nvalue = [0, 5]"] ;
382 -> 383 ;
384 [label="having_sub_domain <= 0.5\ngini = 0.284\nsamples = 35\nvalue = [29.0, 6.0]"] ;
382 -> 384 ;
385 [label="having_sub_domain <= -0.5\ngini = 0.48\nsamples = 15\nvalue = [9, 6]"] ;
384 -> 385 ;
386 [label="request_url <= 0.0\ngini = 0.32\nsamples = 10\nvalue = [8, 2]"] ;
385 -> 386 ;
387 [label="dnsrecord <= 0.0\ngini = 0.444\nsamples = 6\nvalue = [4, 2]"] ;
386 -> 387 ;
388 [label="gini = 0.48\nsamples = 5\nvalue = [3, 2]"] ;
387 -> 388 ;
389 [label="gini = 0.0\nsamples = 1\nvalue = [1, 0]"] ;
387 -> 389 ;
390 [label="gini = 0.0\nsamples = 4\nvalue = [4, 0]"] ;
386 -> 390 ;
391 [label="having_ip_address <= 0.0\ngini = 0.32\nsamples = 5\nvalue = [1, 4]"] ;
385 -> 391 ;
392 [label="gini = 0.0\nsamples = 1\nvalue = [1, 0]"] ;
391 -> 392 ;
393 [label="gini = 0.0\nsamples = 4\nvalue = [0, 4]"] ;
391 -> 393 ;
394 [label="gini = 0.0\nsamples = 20\nvalue = [20, 0]"] ;
384 -> 394 ;
395 [label="age_of_domain <= 0.0\ngini = 0.238\nsamples = 29\nvalue = [25, 4]"] ;
351 -> 395 ;
396 [label="having_ip_address <= 0.0\ngini = 0.444\nsamples = 9\nvalue = [6, 3]"] ;
395 -> 396 ;
397 [label="gini = 0.0\nsamples = 4\nvalue = [4, 0]"] ;
396 -> 397 ;
398 [label="web_traffic <= 0.5\ngini = 0.48\nsamples = 5\nvalue = [2, 3]"] ;
396 -> 398 ;
399 [label="gini = 0.0\nsamples = 1\nvalue = [1, 0]"] ;
398 -> 399 ;
400 [label="gini = 0.375\nsamples = 4\nvalue = [1, 3]"] ;
398 -> 400 ;
401 [label="redirect <= -0.5\ngini = 0.095\nsamples = 20\nvalue = [19, 1]"] ;
395 -> 401 ;
402 [label="gini = 0.5\nsamples = 2\nvalue = [1, 1]"] ;
401 -> 402 ;
403 [label="gini = 0.0\nsamples = 18\nvalue = [18, 0]"] ;
401 -> 403 ;
404 [label="gini = 0.0\nsamples = 5\nvalue = [5, 0]"] ;
350 -> 404 ;
405 [label="having_sub_domain <= 0.5\ngini = 0.499\nsamples = 29\nvalue = [15.0, 14.0]"] ;
347 -> 405 ;
406 [label="links_in_tags <= 0.5\ngini = 0.434\nsamples = 22\nvalue = [15.0, 7.0]"] ;
405 -> 406 ;
407 [label="web_traffic <= 0.5\ngini = 0.332\nsamples = 19\nvalue = [15, 4]"] ;
406 -> 407 ;
408 [label="gini = 0.0\nsamples = 8\nvalue = [8, 0]"] ;
407 -> 408 ;
409 [label="having_sub_domain <= -0.5\ngini = 0.463\nsamples = 11\nvalue = [7, 4]"] ;
407 -> 409 ;
410 [label="having_ip_address <= 0.0\ngini = 0.219\nsamples = 8\nvalue = [7, 1]"] ;
409 -> 410 ;
411 [label="gini = 0.0\nsamples = 1\nvalue = [0, 1]"] ;
410 -> 411 ;
412 [label="gini = 0.0\nsamples = 7\nvalue = [7, 0]"] ;
410 -> 412 ;
413 [label="gini = 0.0\nsamples = 3\nvalue = [0, 3]"] ;
409 -> 413 ;
414 [label="gini = 0.0\nsamples = 3\nvalue = [0, 3]"] ;
406 -> 414 ;
415 [label="gini = 0.0\nsamples = 7\nvalue = [0, 7]"] ;
405 -> 415 ;
416 [label="gini = 0.0\nsamples = 22\nvalue = [22, 0]"] ;
346 -> 416 ;
417 [label="gini = 0.0\nsamples = 9\nvalue = [0, 9]"] ;
345 -> 417 ;
418 [label="url_of_anchor <= -0.5\ngini = 0.197\nsamples = 4738\nvalue = [526, 4212]"] ;
0 -> 418 [labeldistance=2.5, labelangle=-45, headlabel="False"] ;
419 [label="prefix_suffix <= 0.0\ngini = 0.241\nsamples = 193\nvalue = [166, 27]"] ;
418 -> 419 ;
420 [label="links_in_tags <= -0.5\ngini = 0.117\nsamples = 177\nvalue = [166, 11]"] ;
419 -> 420 ;
421 [label="gini = 0.0\nsamples = 112\nvalue = [112, 0]"] ;
420 -> 421 ;
422 [label="request_url <= 0.0\ngini = 0.281\nsamples = 65\nvalue = [54, 11]"] ;
420 -> 422 ;
423 [label="gini = 0.0\nsamples = 38\nvalue = [38, 0]"] ;
422 -> 423 ;
424 [label="shortining_service <= 0.0\ngini = 0.483\nsamples = 27\nvalue = [16, 11]"] ;
422 -> 424 ;
425 [label="gini = 0.0\nsamples = 8\nvalue = [8, 0]"] ;
424 -> 425 ;
426 [label="port <= 0.0\ngini = 0.488\nsamples = 19\nvalue = [8, 11]"] ;
424 -> 426 ;
427 [label="on_mouseover <= 0.0\ngini = 0.486\nsamples = 12\nvalue = [7, 5]"] ;
426 -> 427 ;
428 [label="links_in_tags <= 0.5\ngini = 0.408\nsamples = 7\nvalue = [2, 5]"] ;
427 -> 428 ;
429 [label="gini = 0.0\nsamples = 2\nvalue = [2, 0]"] ;
428 -> 429 ;
430 [label="gini = 0.0\nsamples = 5\nvalue = [0, 5]"] ;
428 -> 430 ;
431 [label="gini = 0.0\nsamples = 5\nvalue = [5, 0]"] ;
427 -> 431 ;
432 [label="having_ip_address <= 0.0\ngini = 0.245\nsamples = 7\nvalue = [1, 6]"] ;
426 -> 432 ;
433 [label="gini = 0.0\nsamples = 1\nvalue = [1, 0]"] ;
432 -> 433 ;
434 [label="gini = 0.0\nsamples = 6\nvalue = [0, 6]"] ;
432 -> 434 ;
435 [label="gini = 0.0\nsamples = 16\nvalue = [0, 16]"] ;
419 -> 435 ;
436 [label="web_traffic <= 0.5\ngini = 0.146\nsamples = 4545\nvalue = [360, 4185]"] ;
418 -> 436 ;
437 [label="web_traffic <= -0.5\ngini = 0.278\nsamples = 1470\nvalue = [245, 1225]"] ;
436 -> 437 ;
438 [label="double_slash_redirecting <= 0.0\ngini = 0.037\nsamples = 697\nvalue = [13, 684]"] ;
437 -> 438 ;
439 [label="having_sub_domain <= -0.5\ngini = 0.14\nsamples = 79\nvalue = [6, 73]"] ;
438 -> 439 ;
440 [label="abnormal_url <= 0.0\ngini = 0.444\nsamples = 6\nvalue = [4, 2]"] ;
439 -> 440 ;
441 [label="gini = 0.0\nsamples = 2\nvalue = [0, 2]"] ;
440 -> 441 ;
442 [label="gini = 0.0\nsamples = 4\nvalue = [4, 0]"] ;
440 -> 442 ;
443 [label="shortining_service <= 0.0\ngini = 0.053\nsamples = 73\nvalue = [2, 71]"] ;
439 -> 443 ;
444 [label="gini = 0.0\nsamples = 65\nvalue = [0, 65]"] ;
443 -> 444 ;
445 [label="request_url <= 0.0\ngini = 0.375\nsamples = 8\nvalue = [2, 6]"] ;
443 -> 445 ;
446 [label="gini = 0.0\nsamples = 2\nvalue = [2, 0]"] ;
445 -> 446 ;
447 [label="gini = 0.0\nsamples = 6\nvalue = [0, 6]"] ;
445 -> 447 ;
448 [label="links_in_tags <= -0.5\ngini = 0.022\nsamples = 618\nvalue = [7.0, 611.0]"] ;
438 -> 448 ;
449 [label="having_ip_address <= 0.0\ngini = 0.081\nsamples = 141\nvalue = [6, 135]"] ;
448 -> 449 ;
450 [label="having_sub_domain <= 0.5\ngini = 0.146\nsamples = 63\nvalue = [5, 58]"] ;
449 -> 450 ;
451 [label="having_sub_domain <= -0.5\ngini = 0.391\nsamples = 15\nvalue = [4, 11]"] ;
450 -> 451 ;
452 [label="request_url <= 0.0\ngini = 0.245\nsamples = 7\nvalue = [1, 6]"] ;
451 -> 452 ;
453 [label="gini = 0.0\nsamples = 5\nvalue = [0, 5]"] ;
452 -> 453 ;
454 [label="iframe <= 0.0\ngini = 0.5\nsamples = 2\nvalue = [1, 1]"] ;
452 -> 454 ;
455 [label="gini = 0.0\nsamples = 1\nvalue = [0, 1]"] ;
454 -> 455 ;
456 [label="gini = 0.0\nsamples = 1\nvalue = [1, 0]"] ;
454 -> 456 ;
457 [label="url_length <= 0.0\ngini = 0.469\nsamples = 8\nvalue = [3, 5]"] ;
451 -> 457 ;
458 [label="request_url <= 0.0\ngini = 0.408\nsamples = 7\nvalue = [2, 5]"] ;
457 -> 458 ;
459 [label="gini = 0.0\nsamples = 1\nvalue = [1, 0]"] ;
458 -> 459 ;
460 [label="domain_registration_length <= 0.0\ngini = 0.278\nsamples = 6\nvalue = [1, 5]"] ;
458 -> 460 ;
461 [label="gini = 0.375\nsamples = 4\nvalue = [1, 3]"] ;
460 -> 461 ;
462 [label="gini = 0.0\nsamples = 2\nvalue = [0, 2]"] ;
460 -> 462 ;
463 [label="gini = 0.0\nsamples = 1\nvalue = [1, 0]"] ;
457 -> 463 ;
464 [label="request_url <= 0.0\ngini = 0.041\nsamples = 48\nvalue = [1, 47]"] ;
450 -> 464 ;
465 [label="age_of_domain <= 0.0\ngini = 0.133\nsamples = 14\nvalue = [1, 13]"] ;
464 -> 465 ;
466 [label="gini = 0.0\nsamples = 7\nvalue = [0, 7]"] ;
465 -> 466 ;
467 [label="submitting_to_email <= 0.0\ngini = 0.245\nsamples = 7\nvalue = [1, 6]"] ;
465 -> 467 ;
468 [label="gini = 0.0\nsamples = 3\nvalue = [0, 3]"] ;
467 -> 468 ;
469 [label="domain_registration_length <= 0.0\ngini = 0.375\nsamples = 4\nvalue = [1, 3]"] ;
467 -> 469 ;
470 [label="gini = 0.0\nsamples = 1\nvalue = [0, 1]"] ;
469 -> 470 ;
471 [label="gini = 0.444\nsamples = 3\nvalue = [1, 2]"] ;
469 -> 471 ;
472 [label="gini = 0.0\nsamples = 34\nvalue = [0, 34]"] ;
464 -> 472 ;
473 [label="request_url <= 0.0\ngini = 0.025\nsamples = 78\nvalue = [1, 77]"] ;
449 -> 473 ;
474 [label="gini = 0.0\nsamples = 57\nvalue = [0, 57]"] ;
473 -> 474 ;
475 [label="url_of_anchor <= 0.5\ngini = 0.091\nsamples = 21\nvalue = [1, 20]"] ;
473 -> 475 ;
476 [label="having_sub_domain <= 0.5\ngini = 0.153\nsamples = 12\nvalue = [1, 11]"] ;
475 -> 476 ;
477 [label="gini = 0.0\nsamples = 5\nvalue = [0, 5]"] ;
476 -> 477 ;
478 [label="sfh <= -0.5\ngini = 0.245\nsamples = 7\nvalue = [1, 6]"] ;
476 -> 478 ;
479 [label="having_at_symbol <= 0.0\ngini = 0.444\nsamples = 3\nvalue = [1, 2]"] ;
478 -> 479 ;
480 [label="gini = 0.0\nsamples = 1\nvalue = [0, 1]"] ;
479 -> 480 ;
481 [label="age_of_domain <= 0.0\ngini = 0.5\nsamples = 2\nvalue = [1, 1]"] ;
479 -> 481 ;
482 [label="gini = 0.0\nsamples = 1\nvalue = [0, 1]"] ;
481 -> 482 ;
483 [label="gini = 0.0\nsamples = 1\nvalue = [1, 0]"] ;
481 -> 483 ;
484 [label="gini = 0.0\nsamples = 4\nvalue = [0, 4]"] ;
478 -> 484 ;
485 [label="gini = 0.0\nsamples = 9\nvalue = [0, 9]"] ;
475 -> 485 ;
486 [label="having_ip_address <= 0.0\ngini = 0.004\nsamples = 477\nvalue = [1, 476]"] ;
448 -> 486 ;
487 [label="domain_registration_length <= 0.0\ngini = 0.014\nsamples = 142\nvalue = [1, 141]"] ;
486 -> 487 ;
488 [label="gini = 0.0\nsamples = 100\nvalue = [0, 100]"] ;
487 -> 488 ;
489 [label="having_sub_domain <= 0.5\ngini = 0.046\nsamples = 42\nvalue = [1, 41]"] ;
487 -> 489 ;
490 [label="having_sub_domain <= -0.5\ngini = 0.105\nsamples = 18\nvalue = [1, 17]"] ;
489 -> 490 ;
491 [label="gini = 0.0\nsamples = 11\nvalue = [0, 11]"] ;
490 -> 491 ;
492 [label="age_of_domain <= 0.0\ngini = 0.245\nsamples = 7\nvalue = [1, 6]"] ;
490 -> 492 ;
493 [label="gini = 0.0\nsamples = 4\nvalue = [0, 4]"] ;
492 -> 493 ;
494 [label="request_url <= 0.0\ngini = 0.444\nsamples = 3\nvalue = [1, 2]"] ;
492 -> 494 ;
495 [label="gini = 0.0\nsamples = 1\nvalue = [1, 0]"] ;
494 -> 495 ;
496 [label="gini = 0.0\nsamples = 2\nvalue = [0, 2]"] ;
494 -> 496 ;
497 [label="gini = 0.0\nsamples = 24\nvalue = [0, 24]"] ;
489 -> 497 ;
498 [label="gini = 0.0\nsamples = 335\nvalue = [0, 335]"] ;
486 -> 498 ;
499 [label="url_of_anchor <= 0.5\ngini = 0.42\nsamples = 773\nvalue = [232, 541]"] ;
437 -> 499 ;
500 [label="having_sub_domain <= 0.5\ngini = 0.471\nsamples = 608\nvalue = [231.0, 377.0]"] ;
499 -> 500 ;
501 [label="prefix_suffix <= 0.0\ngini = 0.488\nsamples = 280\nvalue = [162.0, 118.0]"] ;
500 -> 501 ;
502 [label="rightclick <= 0.0\ngini = 0.472\nsamples = 262\nvalue = [162, 100]"] ;
501 -> 502 ;
503 [label="gini = 0.0\nsamples = 6\nvalue = [0, 6]"] ;
502 -> 503 ;
504 [label="dnsrecord <= 0.0\ngini = 0.465\nsamples = 256\nvalue = [162, 94]"] ;
502 -> 504 ;
505 [label="abnormal_url <= 0.0\ngini = 0.359\nsamples = 81\nvalue = [62, 19]"] ;
504 -> 505 ;
506 [label="shortining_service <= 0.0\ngini = 0.496\nsamples = 11\nvalue = [5, 6]"] ;
505 -> 506 ;
507 [label="sfh <= 0.0\ngini = 0.278\nsamples = 6\nvalue = [1, 5]"] ;
506 -> 507 ;
508 [label="gini = 0.0\nsamples = 1\nvalue = [1, 0]"] ;
507 -> 508 ;
509 [label="gini = 0.0\nsamples = 5\nvalue = [0, 5]"] ;
507 -> 509 ;
510 [label="submitting_to_email <= 0.0\ngini = 0.32\nsamples = 5\nvalue = [4, 1]"] ;
506 -> 510 ;
511 [label="gini = 0.0\nsamples = 1\nvalue = [0, 1]"] ;
510 -> 511 ;
512 [label="gini = 0.0\nsamples = 4\nvalue = [4, 0]"] ;
510 -> 512 ;
513 [label="age_of_domain <= 0.0\ngini = 0.302\nsamples = 70\nvalue = [57, 13]"] ;
505 -> 513 ;
514 [label="domain_registration_length <= 0.0\ngini = 0.142\nsamples = 39\nvalue = [36, 3]"] ;
513 -> 514 ;
515 [label="gini = 0.0\nsamples = 31\nvalue = [31, 0]"] ;
514 -> 515 ;
516 [label="links_in_tags <= -0.5\ngini = 0.469\nsamples = 8\nvalue = [5, 3]"] ;
514 -> 516 ;
517 [label="gini = 0.0\nsamples = 5\nvalue = [5, 0]"] ;
516 -> 517 ;
518 [label="gini = 0.0\nsamples = 3\nvalue = [0, 3]"] ;
516 -> 518 ;
519 [label="request_url <= 0.0\ngini = 0.437\nsamples = 31\nvalue = [21, 10]"] ;
513 -> 519 ;
520 [label="gini = 0.0\nsamples = 8\nvalue = [8, 0]"] ;
519 -> 520 ;
521 [label="domain_registration_length <= 0.0\ngini = 0.491\nsamples = 23\nvalue = [13.0, 10.0]"] ;
519 -> 521 ;
522 [label="url_length <= 0.0\ngini = 0.472\nsamples = 21\nvalue = [13, 8]"] ;
521 -> 522 ;
523 [label="having_sub_domain <= -0.5\ngini = 0.49\nsamples = 14\nvalue = [6, 8]"] ;
522 -> 523 ;
524 [label="links_in_tags <= -0.5\ngini = 0.444\nsamples = 12\nvalue = [4, 8]"] ;
523 -> 524 ;
525 [label="gini = 0.0\nsamples = 4\nvalue = [0, 4]"] ;
524 -> 525 ;
526 [label="favicon <= 0.0\ngini = 0.5\nsamples = 8\nvalue = [4, 4]"] ;
524 -> 526 ;
527 [label="gini = 0.0\nsamples = 2\nvalue = [0, 2]"] ;
526 -> 527 ;
528 [label="gini = 0.444\nsamples = 6\nvalue = [4, 2]"] ;
526 -> 528 ;
529 [label="gini = 0.0\nsamples = 2\nvalue = [2, 0]"] ;
523 -> 529 ;
530 [label="gini = 0.0\nsamples = 7\nvalue = [7, 0]"] ;
522 -> 530 ;
531 [label="gini = 0.0\nsamples = 2\nvalue = [0, 2]"] ;
521 -> 531 ;
532 [label="having_sub_domain <= -0.5\ngini = 0.49\nsamples = 175\nvalue = [100, 75]"] ;
504 -> 532 ;
533 [label="links_in_tags <= -0.5\ngini = 0.486\nsamples = 79\nvalue = [33, 46]"] ;
532 -> 533 ;
534 [label="age_of_domain <= 0.0\ngini = 0.484\nsamples = 39\nvalue = [23, 16]"] ;
533 -> 534 ;
535 [label="shortining_service <= 0.0\ngini = 0.366\nsamples = 29\nvalue = [22, 7]"] ;
534 -> 535 ;
536 [label="gini = 0.0\nsamples = 3\nvalue = [0, 3]"] ;
535 -> 536 ;
537 [label="request_url <= 0.0\ngini = 0.26\nsamples = 26\nvalue = [22, 4]"] ;
535 -> 537 ;
538 [label="gini = 0.0\nsamples = 12\nvalue = [12, 0]"] ;
537 -> 538 ;
539 [label="domain_registration_length <= 0.0\ngini = 0.408\nsamples = 14\nvalue = [10, 4]"] ;
537 -> 539 ;
540 [label="redirect <= 0.5\ngini = 0.444\nsamples = 12\nvalue = [8, 4]"] ;
539 -> 540 ;
541 [label="gini = 0.463\nsamples = 11\nvalue = [7, 4]"] ;
540 -> 541 ;
542 [label="gini = 0.0\nsamples = 1\nvalue = [1, 0]"] ;
540 -> 542 ;
543 [label="gini = 0.0\nsamples = 2\nvalue = [2, 0]"] ;
539 -> 543 ;
544 [label="request_url <= 0.0\ngini = 0.18\nsamples = 10\nvalue = [1, 9]"] ;
534 -> 544 ;
545 [label="gini = 0.0\nsamples = 2\nvalue = [0, 2]"] ;
544 -> 545 ;
546 [label="gini = 0.219\nsamples = 8\nvalue = [1, 7]"] ;
544 -> 546 ;
547 [label="having_ip_address <= 0.0\ngini = 0.375\nsamples = 40\nvalue = [10, 30]"] ;
533 -> 547 ;
548 [label="gini = 0.0\nsamples = 7\nvalue = [0, 7]"] ;
547 -> 548 ;
549 [label="shortining_service <= 0.0\ngini = 0.422\nsamples = 33\nvalue = [10, 23]"] ;
547 -> 549 ;
550 [label="gini = 0.0\nsamples = 2\nvalue = [0, 2]"] ;
549 -> 550 ;
551 [label="abnormal_url <= 0.0\ngini = 0.437\nsamples = 31\nvalue = [10, 21]"] ;
549 -> 551 ;
552 [label="gini = 0.0\nsamples = 2\nvalue = [0, 2]"] ;
551 -> 552 ;
553 [label="age_of_domain <= 0.0\ngini = 0.452\nsamples = 29\nvalue = [10, 19]"] ;
551 -> 553 ;
554 [label="popupwindow <= 0.0\ngini = 0.488\nsamples = 19\nvalue = [8, 11]"] ;
553 -> 554 ;
555 [label="gini = 0.0\nsamples = 2\nvalue = [2, 0]"] ;
554 -> 555 ;
556 [label="request_url <= 0.0\ngini = 0.457\nsamples = 17\nvalue = [6, 11]"] ;
554 -> 556 ;
557 [label="gini = 0.5\nsamples = 6\nvalue = [3, 3]"] ;
556 -> 557 ;
558 [label="links_in_tags <= 0.5\ngini = 0.397\nsamples = 11\nvalue = [3, 8]"] ;
556 -> 558 ;
559 [label="gini = 0.0\nsamples = 3\nvalue = [0, 3]"] ;
558 -> 559 ;
560 [label="gini = 0.469\nsamples = 8\nvalue = [3, 5]"] ;
558 -> 560 ;
561 [label="popupwindow <= 0.0\ngini = 0.32\nsamples = 10\nvalue = [2, 8]"] ;
553 -> 561 ;
562 [label="gini = 0.0\nsamples = 3\nvalue = [0, 3]"] ;
561 -> 562 ;
563 [label="request_url <= 0.0\ngini = 0.408\nsamples = 7\nvalue = [2, 5]"] ;
561 -> 563 ;
564 [label="gini = 0.0\nsamples = 2\nvalue = [0, 2]"] ;
563 -> 564 ;
565 [label="gini = 0.48\nsamples = 5\nvalue = [2, 3]"] ;
563 -> 565 ;
566 [label="sfh <= 0.0\ngini = 0.422\nsamples = 96\nvalue = [67, 29]"] ;
532 -> 566 ;
567 [label="having_ip_address <= 0.0\ngini = 0.403\nsamples = 93\nvalue = [67.0, 26.0]"] ;
566 -> 567 ;
568 [label="request_url <= 0.0\ngini = 0.255\nsamples = 40\nvalue = [34, 6]"] ;
567 -> 568 ;
569 [label="gini = 0.0\nsamples = 16\nvalue = [16, 0]"] ;
568 -> 569 ;
570 [label="submitting_to_email <= 0.0\ngini = 0.375\nsamples = 24\nvalue = [18, 6]"] ;
568 -> 570 ;
571 [label="gini = 0.0\nsamples = 2\nvalue = [0, 2]"] ;
570 -> 571 ;
572 [label="domain_registration_length <= 0.0\ngini = 0.298\nsamples = 22\nvalue = [18, 4]"] ;
570 -> 572 ;
573 [label="redirect <= 0.5\ngini = 0.198\nsamples = 18\nvalue = [16, 2]"] ;
572 -> 573 ;
574 [label="gini = 0.0\nsamples = 14\nvalue = [14, 0]"] ;
573 -> 574 ;
575 [label="links_in_tags <= -0.5\ngini = 0.5\nsamples = 4\nvalue = [2, 2]"] ;
573 -> 575 ;
576 [label="gini = 0.444\nsamples = 3\nvalue = [2, 1]"] ;
575 -> 576 ;
577 [label="gini = 0.0\nsamples = 1\nvalue = [0, 1]"] ;
575 -> 577 ;
578 [label="redirect <= 0.5\ngini = 0.5\nsamples = 4\nvalue = [2, 2]"] ;
572 -> 578 ;
579 [label="gini = 0.444\nsamples = 3\nvalue = [1, 2]"] ;
578 -> 579 ;
580 [label="gini = 0.0\nsamples = 1\nvalue = [1, 0]"] ;
578 -> 580 ;
581 [label="domain_registration_length <= 0.0\ngini = 0.47\nsamples = 53\nvalue = [33, 20]"] ;
567 -> 581 ;
582 [label="links_in_tags <= 0.5\ngini = 0.495\nsamples = 42\nvalue = [23.0, 19.0]"] ;
581 -> 582 ;
583 [label="request_url <= 0.0\ngini = 0.5\nsamples = 37\nvalue = [18, 19]"] ;
582 -> 583 ;
584 [label="redirect <= 0.5\ngini = 0.375\nsamples = 12\nvalue = [3, 9]"] ;
583 -> 584 ;
585 [label="links_in_tags <= -0.5\ngini = 0.198\nsamples = 9\nvalue = [1, 8]"] ;
584 -> 585 ;
586 [label="gini = 0.0\nsamples = 6\nvalue = [0, 6]"] ;
585 -> 586 ;
587 [label="shortining_service <= 0.0\ngini = 0.444\nsamples = 3\nvalue = [1, 2]"] ;
585 -> 587 ;
588 [label="gini = 0.0\nsamples = 1\nvalue = [0, 1]"] ;
587 -> 588 ;
589 [label="gini = 0.5\nsamples = 2\nvalue = [1, 1]"] ;
587 -> 589 ;
590 [label="gini = 0.444\nsamples = 3\nvalue = [2, 1]"] ;
584 -> 590 ;
591 [label="links_in_tags <= -0.5\ngini = 0.48\nsamples = 25\nvalue = [15, 10]"] ;
583 -> 591 ;
592 [label="having_at_symbol <= 0.0\ngini = 0.245\nsamples = 14\nvalue = [12, 2]"] ;
591 -> 592 ;
593 [label="gini = 0.0\nsamples = 1\nvalue = [0, 1]"] ;
592 -> 593 ;
594 [label="age_of_domain <= 0.0\ngini = 0.142\nsamples = 13\nvalue = [12, 1]"] ;
592 -> 594 ;
595 [label="redirect <= 0.5\ngini = 0.245\nsamples = 7\nvalue = [6, 1]"] ;
594 -> 595 ;
596 [label="https_token <= 0.0\ngini = 0.32\nsamples = 5\nvalue = [4, 1]"] ;
595 -> 596 ;
597 [label="gini = 0.0\nsamples = 1\nvalue = [1, 0]"] ;
596 -> 597 ;
598 [label="gini = 0.375\nsamples = 4\nvalue = [3, 1]"] ;
596 -> 598 ;
599 [label="gini = 0.0\nsamples = 2\nvalue = [2, 0]"] ;
595 -> 599 ;
600 [label="gini = 0.0\nsamples = 6\nvalue = [6, 0]"] ;
594 -> 600 ;
601 [label="submitting_to_email <= 0.0\ngini = 0.397\nsamples = 11\nvalue = [3, 8]"] ;
591 -> 601 ;
602 [label="gini = 0.0\nsamples = 2\nvalue = [0, 2]"] ;
601 -> 602 ;
603 [label="age_of_domain <= 0.0\ngini = 0.444\nsamples = 9\nvalue = [3, 6]"] ;
601 -> 603 ;
604 [label="gini = 0.444\nsamples = 3\nvalue = [2, 1]"] ;
603 -> 604 ;
605 [label="gini = 0.278\nsamples = 6\nvalue = [1, 5]"] ;
603 -> 605 ;
606 [label="gini = 0.0\nsamples = 5\nvalue = [5, 0]"] ;
582 -> 606 ;
607 [label="links_in_tags <= -0.5\ngini = 0.165\nsamples = 11\nvalue = [10, 1]"] ;
581 -> 607 ;
608 [label="gini = 0.0\nsamples = 9\nvalue = [9, 0]"] ;
607 -> 608 ;
609 [label="links_in_tags <= 0.5\ngini = 0.5\nsamples = 2\nvalue = [1, 1]"] ;
607 -> 609 ;
610 [label="gini = 0.0\nsamples = 1\nvalue = [0, 1]"] ;
609 -> 610 ;
611 [label="gini = 0.0\nsamples = 1\nvalue = [1, 0]"] ;
609 -> 611 ;
612 [label="gini = 0.0\nsamples = 3\nvalue = [0, 3]"] ;
566 -> 612 ;
613 [label="gini = 0.0\nsamples = 18\nvalue = [0, 18]"] ;
501 -> 613 ;
614 [label="dnsrecord <= 0.0\ngini = 0.332\nsamples = 328\nvalue = [69, 259]"] ;
500 -> 614 ;
615 [label="favicon <= 0.0\ngini = 0.455\nsamples = 97\nvalue = [34, 63]"] ;
614 -> 615 ;
616 [label="submitting_to_email <= 0.0\ngini = 0.188\nsamples = 19\nvalue = [2, 17]"] ;
615 -> 616 ;
617 [label="on_mouseover <= 0.0\ngini = 0.5\nsamples = 4\nvalue = [2, 2]"] ;
616 -> 617 ;
618 [label="gini = 0.0\nsamples = 2\nvalue = [0, 2]"] ;
617 -> 618 ;
619 [label="gini = 0.0\nsamples = 2\nvalue = [2, 0]"] ;
617 -> 619 ;
620 [label="gini = 0.0\nsamples = 15\nvalue = [0, 15]"] ;
616 -> 620 ;
621 [label="request_url <= 0.0\ngini = 0.484\nsamples = 78\nvalue = [32, 46]"] ;
615 -> 621 ;
622 [label="age_of_domain <= 0.0\ngini = 0.346\nsamples = 9\nvalue = [7, 2]"] ;
621 -> 622 ;
623 [label="gini = 0.0\nsamples = 7\nvalue = [7, 0]"] ;
622 -> 623 ;
624 [label="gini = 0.0\nsamples = 2\nvalue = [0, 2]"] ;
622 -> 624 ;
625 [label="age_of_domain <= 0.0\ngini = 0.462\nsamples = 69\nvalue = [25.0, 44.0]"] ;
621 -> 625 ;
626 [label="gini = 0.0\nsamples = 11\nvalue = [0, 11]"] ;
625 -> 626 ;
627 [label="popupwindow <= 0.0\ngini = 0.49\nsamples = 58\nvalue = [25, 33]"] ;
625 -> 627 ;
628 [label="gini = 0.0\nsamples = 3\nvalue = [3, 0]"] ;
627 -> 628 ;
629 [label="having_at_symbol <= 0.0\ngini = 0.48\nsamples = 55\nvalue = [22, 33]"] ;
627 -> 629 ;
630 [label="redirect <= 0.5\ngini = 0.245\nsamples = 7\nvalue = [1, 6]"] ;
629 -> 630 ;
631 [label="gini = 0.444\nsamples = 3\nvalue = [1, 2]"] ;
630 -> 631 ;
632 [label="gini = 0.0\nsamples = 4\nvalue = [0, 4]"] ;
630 -> 632 ;
633 [label="links_in_tags <= 0.5\ngini = 0.492\nsamples = 48\nvalue = [21, 27]"] ;
629 -> 633 ;
634 [label="domain_registration_length <= 0.0\ngini = 0.499\nsamples = 40\nvalue = [19, 21]"] ;
633 -> 634 ;
635 [label="double_slash_redirecting <= 0.0\ngini = 0.5\nsamples = 33\nvalue = [17, 16]"] ;
634 -> 635 ;
636 [label="url_length <= 0.0\ngini = 0.484\nsamples = 17\nvalue = [7, 10]"] ;
635 -> 636 ;
637 [label="gini = 0.0\nsamples = 4\nvalue = [0, 4]"] ;
636 -> 637 ;
638 [label="links_in_tags <= -0.5\ngini = 0.497\nsamples = 13\nvalue = [7, 6]"] ;
636 -> 638 ;
639 [label="sfh <= 0.0\ngini = 0.444\nsamples = 9\nvalue = [3, 6]"] ;
638 -> 639 ;
640 [label="gini = 0.0\nsamples = 3\nvalue = [0, 3]"] ;
639 -> 640 ;
641 [label="gini = 0.5\nsamples = 6\nvalue = [3, 3]"] ;
639 -> 641 ;
642 [label="gini = 0.0\nsamples = 4\nvalue = [4, 0]"] ;
638 -> 642 ;
643 [label="url_length <= 0.0\ngini = 0.469\nsamples = 16\nvalue = [10, 6]"] ;
635 -> 643 ;
644 [label="submitting_to_email <= 0.0\ngini = 0.408\nsamples = 14\nvalue = [10, 4]"] ;
643 -> 644 ;
645 [label="gini = 0.0\nsamples = 3\nvalue = [3, 0]"] ;
644 -> 645 ;
646 [label="links_in_tags <= -0.5\ngini = 0.463\nsamples = 11\nvalue = [7, 4]"] ;
644 -> 646 ;
647 [label="gini = 0.444\nsamples = 6\nvalue = [4, 2]"] ;
646 -> 647 ;
648 [label="gini = 0.48\nsamples = 5\nvalue = [3, 2]"] ;
646 -> 648 ;
649 [label="gini = 0.0\nsamples = 2\nvalue = [0, 2]"] ;
643 -> 649 ;
650 [label="links_in_tags <= -0.5\ngini = 0.408\nsamples = 7\nvalue = [2, 5]"] ;
634 -> 650 ;
651 [label="gini = 0.0\nsamples = 3\nvalue = [0, 3]"] ;
650 -> 651 ;
652 [label="gini = 0.5\nsamples = 4\nvalue = [2, 2]"] ;
650 -> 652 ;
653 [label="sfh <= 0.0\ngini = 0.375\nsamples = 8\nvalue = [2, 6]"] ;
633 -> 653 ;
654 [label="gini = 0.444\nsamples = 6\nvalue = [2, 4]"] ;
653 -> 654 ;
655 [label="gini = 0.0\nsamples = 2\nvalue = [0, 2]"] ;
653 -> 655 ;
656 [label="sfh <= -0.5\ngini = 0.257\nsamples = 231\nvalue = [35, 196]"] ;
614 -> 656 ;
657 [label="popupwindow <= 0.0\ngini = 0.323\nsamples = 173\nvalue = [35, 138]"] ;
656 -> 657 ;
658 [label="gini = 0.0\nsamples = 31\nvalue = [0, 31]"] ;
657 -> 658 ;
659 [label="prefix_suffix <= 0.0\ngini = 0.371\nsamples = 142\nvalue = [35, 107]"] ;
657 -> 659 ;
660 [label="domain_registration_length <= 0.0\ngini = 0.393\nsamples = 130\nvalue = [35, 95]"] ;
659 -> 660 ;
661 [label="url_length <= 0.0\ngini = 0.422\nsamples = 109\nvalue = [33, 76]"] ;
660 -> 661 ;
662 [label="links_in_tags <= -0.5\ngini = 0.442\nsamples = 97\nvalue = [32, 65]"] ;
661 -> 662 ;
663 [label="request_url <= 0.0\ngini = 0.492\nsamples = 39\nvalue = [17, 22]"] ;
662 -> 663 ;
664 [label="gini = 0.0\nsamples = 2\nvalue = [0, 2]"] ;
663 -> 664 ;
665 [label="age_of_domain <= 0.0\ngini = 0.497\nsamples = 37\nvalue = [17, 20]"] ;
663 -> 665 ;
666 [label="having_ip_address <= 0.0\ngini = 0.5\nsamples = 24\nvalue = [12, 12]"] ;
665 -> 666 ;
667 [label="redirect <= 0.5\ngini = 0.444\nsamples = 3\nvalue = [1, 2]"] ;
666 -> 667 ;
668 [label="gini = 0.0\nsamples = 2\nvalue = [0, 2]"] ;
667 -> 668 ;
669 [label="gini = 0.0\nsamples = 1\nvalue = [1, 0]"] ;
667 -> 669 ;
670 [label="redirect <= 0.5\ngini = 0.499\nsamples = 21\nvalue = [11, 10]"] ;
666 -> 670 ;
671 [label="gini = 0.494\nsamples = 18\nvalue = [10, 8]"] ;
670 -> 671 ;
672 [label="gini = 0.444\nsamples = 3\nvalue = [1, 2]"] ;
670 -> 672 ;
673 [label="gini = 0.473\nsamples = 13\nvalue = [5, 8]"] ;
665 -> 673 ;
674 [label="links_in_tags <= 0.5\ngini = 0.383\nsamples = 58\nvalue = [15.0, 43.0]"] ;
662 -> 674 ;
675 [label="having_ip_address <= 0.0\ngini = 0.191\nsamples = 28\nvalue = [3, 25]"] ;
674 -> 675 ;
676 [label="gini = 0.5\nsamples = 4\nvalue = [2, 2]"] ;
675 -> 676 ;
677 [label="age_of_domain <= 0.0\ngini = 0.08\nsamples = 24\nvalue = [1, 23]"] ;
675 -> 677 ;
678 [label="gini = 0.0\nsamples = 12\nvalue = [0, 12]"] ;
677 -> 678 ;
679 [label="gini = 0.153\nsamples = 12\nvalue = [1, 11]"] ;
677 -> 679 ;
680 [label="https_token <= 0.0\ngini = 0.48\nsamples = 30\nvalue = [12, 18]"] ;
674 -> 680 ;
681 [label="gini = 0.0\nsamples = 6\nvalue = [0, 6]"] ;
680 -> 681 ;
682 [label="having_ip_address <= 0.0\ngini = 0.5\nsamples = 24\nvalue = [12, 12]"] ;
680 -> 682 ;
683 [label="submitting_to_email <= 0.0\ngini = 0.219\nsamples = 8\nvalue = [1, 7]"] ;
682 -> 683 ;
684 [label="gini = 0.0\nsamples = 2\nvalue = [0, 2]"] ;
683 -> 684 ;
685 [label="age_of_domain <= 0.0\ngini = 0.278\nsamples = 6\nvalue = [1, 5]"] ;
683 -> 685 ;
686 [label="gini = 0.32\nsamples = 5\nvalue = [1, 4]"] ;
685 -> 686 ;
687 [label="gini = 0.0\nsamples = 1\nvalue = [0, 1]"] ;
685 -> 687 ;
688 [label="submitting_to_email <= 0.0\ngini = 0.43\nsamples = 16\nvalue = [11, 5]"] ;
682 -> 688 ;
689 [label="gini = 0.0\nsamples = 1\nvalue = [0, 1]"] ;
688 -> 689 ;
690 [label="age_of_domain <= 0.0\ngini = 0.391\nsamples = 15\nvalue = [11, 4]"] ;
688 -> 690 ;
691 [label="redirect <= 0.5\ngini = 0.444\nsamples = 3\nvalue = [1, 2]"] ;
690 -> 691 ;
692 [label="gini = 0.0\nsamples = 2\nvalue = [0, 2]"] ;
691 -> 692 ;
693 [label="gini = 0.0\nsamples = 1\nvalue = [1, 0]"] ;
691 -> 693 ;
694 [label="gini = 0.278\nsamples = 12\nvalue = [10, 2]"] ;
690 -> 694 ;
695 [label="redirect <= 0.5\ngini = 0.153\nsamples = 12\nvalue = [1, 11]"] ;
661 -> 695 ;
696 [label="gini = 0.0\nsamples = 9\nvalue = [0, 9]"] ;
695 -> 696 ;
697 [label="submitting_to_email <= 0.0\ngini = 0.444\nsamples = 3\nvalue = [1, 2]"] ;
695 -> 697 ;
698 [label="gini = 0.0\nsamples = 2\nvalue = [0, 2]"] ;
697 -> 698 ;
699 [label="gini = 0.0\nsamples = 1\nvalue = [1, 0]"] ;
697 -> 699 ;
700 [label="on_mouseover <= 0.0\ngini = 0.172\nsamples = 21\nvalue = [2, 19]"] ;
660 -> 700 ;
701 [label="gini = 0.0\nsamples = 1\nvalue = [1, 0]"] ;
700 -> 701 ;
702 [label="having_ip_address <= 0.0\ngini = 0.095\nsamples = 20\nvalue = [1, 19]"] ;
700 -> 702 ;
703 [label="request_url <= 0.0\ngini = 0.278\nsamples = 6\nvalue = [1, 5]"] ;
702 -> 703 ;
704 [label="links_in_tags <= 0.5\ngini = 0.5\nsamples = 2\nvalue = [1, 1]"] ;
703 -> 704 ;
705 [label="gini = 0.0\nsamples = 1\nvalue = [1, 0]"] ;
704 -> 705 ;
706 [label="gini = 0.0\nsamples = 1\nvalue = [0, 1]"] ;
704 -> 706 ;
707 [label="gini = 0.0\nsamples = 4\nvalue = [0, 4]"] ;
703 -> 707 ;
708 [label="gini = 0.0\nsamples = 14\nvalue = [0, 14]"] ;
702 -> 708 ;
709 [label="gini = 0.0\nsamples = 12\nvalue = [0, 12]"] ;
659 -> 709 ;
710 [label="gini = 0.0\nsamples = 58\nvalue = [0, 58]"] ;
656 -> 710 ;
711 [label="on_mouseover <= 0.0\ngini = 0.012\nsamples = 165\nvalue = [1, 164]"] ;
499 -> 711 ;
712 [label="links_in_tags <= -0.5\ngini = 0.198\nsamples = 9\nvalue = [1, 8]"] ;
711 -> 712 ;
713 [label="age_of_domain <= 0.0\ngini = 0.444\nsamples = 3\nvalue = [1, 2]"] ;
712 -> 713 ;
714 [label="gini = 0.0\nsamples = 1\nvalue = [1, 0]"] ;
713 -> 714 ;
715 [label="gini = 0.0\nsamples = 2\nvalue = [0, 2]"] ;
713 -> 715 ;
716 [label="gini = 0.0\nsamples = 6\nvalue = [0, 6]"] ;
712 -> 716 ;
717 [label="gini = 0.0\nsamples = 156\nvalue = [0, 156]"] ;
711 -> 717 ;
718 [label="links_in_tags <= -0.5\ngini = 0.072\nsamples = 3075\nvalue = [115, 2960]"] ;
436 -> 718 ;
719 [label="sfh <= -0.5\ngini = 0.187\nsamples = 816\nvalue = [85, 731]"] ;
718 -> 719 ;
720 [label="having_sub_domain <= 0.5\ngini = 0.266\nsamples = 538\nvalue = [85, 453]"] ;
719 -> 720 ;
721 [label="dnsrecord <= 0.0\ngini = 0.367\nsamples = 314\nvalue = [76.0, 238.0]"] ;
720 -> 721 ;
722 [label="shortining_service <= 0.0\ngini = 0.211\nsamples = 167\nvalue = [20, 147]"] ;
721 -> 722 ;
723 [label="gini = 0.0\nsamples = 54\nvalue = [0, 54]"] ;
722 -> 723 ;
724 [label="double_slash_redirecting <= 0.0\ngini = 0.291\nsamples = 113\nvalue = [20, 93]"] ;
722 -> 724 ;
725 [label="gini = 0.0\nsamples = 7\nvalue = [7, 0]"] ;
724 -> 725 ;
726 [label="age_of_domain <= 0.0\ngini = 0.215\nsamples = 106\nvalue = [13, 93]"] ;
724 -> 726 ;
727 [label="submitting_to_email <= 0.0\ngini = 0.324\nsamples = 54\nvalue = [11, 43]"] ;
726 -> 727 ;
728 [label="gini = 0.0\nsamples = 19\nvalue = [0, 19]"] ;
727 -> 728 ;
729 [label="having_sub_domain <= -0.5\ngini = 0.431\nsamples = 35\nvalue = [11, 24]"] ;
727 -> 729 ;
730 [label="request_url <= 0.0\ngini = 0.486\nsamples = 12\nvalue = [7, 5]"] ;
729 -> 730 ;
731 [label="gini = 0.0\nsamples = 7\nvalue = [7, 0]"] ;
730 -> 731 ;
732 [label="gini = 0.0\nsamples = 5\nvalue = [0, 5]"] ;
730 -> 732 ;
733 [label="request_url <= 0.0\ngini = 0.287\nsamples = 23\nvalue = [4, 19]"] ;
729 -> 733 ;
734 [label="gini = 0.0\nsamples = 11\nvalue = [0, 11]"] ;
733 -> 734 ;
735 [label="domain_registration_length <= 0.0\ngini = 0.444\nsamples = 12\nvalue = [4, 8]"] ;
733 -> 735 ;
736 [label="gini = 0.0\nsamples = 8\nvalue = [0, 8]"] ;
735 -> 736 ;
737 [label="gini = 0.0\nsamples = 4\nvalue = [4, 0]"] ;
735 -> 737 ;
738 [label="having_sub_domain <= -0.5\ngini = 0.074\nsamples = 52\nvalue = [2, 50]"] ;
726 -> 738 ;
739 [label="gini = 0.0\nsamples = 41\nvalue = [0, 41]"] ;
738 -> 739 ;
740 [label="request_url <= 0.0\ngini = 0.298\nsamples = 11\nvalue = [2, 9]"] ;
738 -> 740 ;
741 [label="gini = 0.0\nsamples = 7\nvalue = [0, 7]"] ;
740 -> 741 ;
742 [label="gini = 0.5\nsamples = 4\nvalue = [2, 2]"] ;
740 -> 742 ;
743 [label="prefix_suffix <= 0.0\ngini = 0.472\nsamples = 147\nvalue = [56, 91]"] ;
721 -> 743 ;
744 [label="request_url <= 0.0\ngini = 0.494\nsamples = 126\nvalue = [56, 70]"] ;
743 -> 744 ;
745 [label="having_at_symbol <= 0.0\ngini = 0.484\nsamples = 51\nvalue = [30, 21]"] ;
744 -> 745 ;
746 [label="gini = 0.0\nsamples = 6\nvalue = [6, 0]"] ;
745 -> 746 ;
747 [label="age_of_domain <= 0.0\ngini = 0.498\nsamples = 45\nvalue = [24, 21]"] ;
745 -> 747 ;
748 [label="abnormal_url <= 0.0\ngini = 0.451\nsamples = 32\nvalue = [21, 11]"] ;
747 -> 748 ;
749 [label="gini = 0.0\nsamples = 2\nvalue = [0, 2]"] ;
748 -> 749 ;
750 [label="url_of_anchor <= 0.5\ngini = 0.42\nsamples = 30\nvalue = [21, 9]"] ;
748 -> 750 ;
751 [label="having_sub_domain <= -0.5\ngini = 0.375\nsamples = 28\nvalue = [21, 7]"] ;
750 -> 751 ;
752 [label="gini = 0.0\nsamples = 13\nvalue = [13, 0]"] ;
751 -> 752 ;
753 [label="having_ip_address <= 0.0\ngini = 0.498\nsamples = 15\nvalue = [8, 7]"] ;
751 -> 753 ;
754 [label="gini = 0.0\nsamples = 5\nvalue = [5, 0]"] ;
753 -> 754 ;
755 [label="domain_registration_length <= 0.0\ngini = 0.42\nsamples = 10\nvalue = [3, 7]"] ;
753 -> 755 ;
756 [label="gini = 0.0\nsamples = 4\nvalue = [0, 4]"] ;
755 -> 756 ;
757 [label="gini = 0.5\nsamples = 6\nvalue = [3, 3]"] ;
755 -> 757 ;
758 [label="gini = 0.0\nsamples = 2\nvalue = [0, 2]"] ;
750 -> 758 ;
759 [label="url_of_anchor <= 0.5\ngini = 0.355\nsamples = 13\nvalue = [3, 10]"] ;
747 -> 759 ;
760 [label="having_sub_domain <= -0.5\ngini = 0.165\nsamples = 11\nvalue = [1, 10]"] ;
759 -> 760 ;
761 [label="gini = 0.0\nsamples = 9\nvalue = [0, 9]"] ;
760 -> 761 ;
762 [label="domain_registration_length <= 0.0\ngini = 0.5\nsamples = 2\nvalue = [1, 1]"] ;
760 -> 762 ;
763 [label="gini = 0.0\nsamples = 1\nvalue = [1, 0]"] ;
762 -> 763 ;
764 [label="gini = 0.0\nsamples = 1\nvalue = [0, 1]"] ;
762 -> 764 ;
765 [label="gini = 0.0\nsamples = 2\nvalue = [2, 0]"] ;
759 -> 765 ;
766 [label="favicon <= 0.0\ngini = 0.453\nsamples = 75\nvalue = [26, 49]"] ;
744 -> 766 ;
767 [label="domain_registration_length <= 0.0\ngini = 0.142\nsamples = 13\nvalue = [1, 12]"] ;
766 -> 767 ;
768 [label="gini = 0.0\nsamples = 12\nvalue = [0, 12]"] ;
767 -> 768 ;
769 [label="gini = 0.0\nsamples = 1\nvalue = [1, 0]"] ;
767 -> 769 ;
770 [label="having_sub_domain <= -0.5\ngini = 0.481\nsamples = 62\nvalue = [25, 37]"] ;
766 -> 770 ;
771 [label="url_length <= 0.0\ngini = 0.408\nsamples = 28\nvalue = [8, 20]"] ;
770 -> 771 ;
772 [label="url_of_anchor <= 0.5\ngini = 0.444\nsamples = 24\nvalue = [8, 16]"] ;
771 -> 772 ;
773 [label="domain_registration_length <= 0.0\ngini = 0.472\nsamples = 21\nvalue = [8, 13]"] ;
772 -> 773 ;
774 [label="having_ip_address <= 0.0\ngini = 0.455\nsamples = 20\nvalue = [7, 13]"] ;
773 -> 774 ;
775 [label="gini = 0.0\nsamples = 1\nvalue = [0, 1]"] ;
774 -> 775 ;
776 [label="age_of_domain <= 0.0\ngini = 0.465\nsamples = 19\nvalue = [7, 12]"] ;
774 -> 776 ;
777 [label="gini = 0.444\nsamples = 9\nvalue = [3, 6]"] ;
776 -> 777 ;
778 [label="gini = 0.48\nsamples = 10\nvalue = [4, 6]"] ;
776 -> 778 ;
779 [label="gini = 0.0\nsamples = 1\nvalue = [1, 0]"] ;
773 -> 779 ;
780 [label="gini = 0.0\nsamples = 3\nvalue = [0, 3]"] ;
772 -> 780 ;
781 [label="gini = 0.0\nsamples = 4\nvalue = [0, 4]"] ;
771 -> 781 ;
782 [label="age_of_domain <= 0.0\ngini = 0.5\nsamples = 34\nvalue = [17, 17]"] ;
770 -> 782 ;
783 [label="having_ip_address <= 0.0\ngini = 0.355\nsamples = 13\nvalue = [3, 10]"] ;
782 -> 783 ;
784 [label="gini = 0.5\nsamples = 2\nvalue = [1, 1]"] ;
783 -> 784 ;
785 [label="gini = 0.298\nsamples = 11\nvalue = [2, 9]"] ;
783 -> 785 ;
786 [label="domain_registration_length <= 0.0\ngini = 0.444\nsamples = 21\nvalue = [14, 7]"] ;
782 -> 786 ;
787 [label="url_length <= 0.0\ngini = 0.401\nsamples = 18\nvalue = [13, 5]"] ;
786 -> 787 ;
788 [label="having_ip_address <= 0.0\ngini = 0.337\nsamples = 14\nvalue = [11, 3]"] ;
787 -> 788 ;
789 [label="gini = 0.0\nsamples = 3\nvalue = [3, 0]"] ;
788 -> 789 ;
790 [label="gini = 0.397\nsamples = 11\nvalue = [8, 3]"] ;
788 -> 790 ;
791 [label="having_ip_address <= 0.0\ngini = 0.5\nsamples = 4\nvalue = [2, 2]"] ;
787 -> 791 ;
792 [label="popupwindow <= 0.0\ngini = 0.444\nsamples = 3\nvalue = [1, 2]"] ;
791 -> 792 ;
793 [label="gini = 0.0\nsamples = 1\nvalue = [1, 0]"] ;
792 -> 793 ;
794 [label="gini = 0.0\nsamples = 2\nvalue = [0, 2]"] ;
792 -> 794 ;
795 [label="gini = 0.0\nsamples = 1\nvalue = [1, 0]"] ;
791 -> 795 ;
796 [label="submitting_to_email <= 0.0\ngini = 0.444\nsamples = 3\nvalue = [1, 2]"] ;
786 -> 796 ;
797 [label="gini = 0.0\nsamples = 1\nvalue = [1, 0]"] ;
796 -> 797 ;
798 [label="gini = 0.0\nsamples = 2\nvalue = [0, 2]"] ;
796 -> 798 ;
799 [label="gini = 0.0\nsamples = 21\nvalue = [0, 21]"] ;
743 -> 799 ;
800 [label="dnsrecord <= 0.0\ngini = 0.077\nsamples = 224\nvalue = [9, 215]"] ;
720 -> 800 ;
801 [label="gini = 0.0\nsamples = 66\nvalue = [0, 66]"] ;
800 -> 801 ;
802 [label="redirect <= 0.5\ngini = 0.107\nsamples = 158\nvalue = [9, 149]"] ;
800 -> 802 ;
803 [label="having_ip_address <= 0.0\ngini = 0.09\nsamples = 148\nvalue = [7, 141]"] ;
802 -> 803 ;
804 [label="age_of_domain <= 0.0\ngini = 0.193\nsamples = 37\nvalue = [4, 33]"] ;
803 -> 804 ;
805 [label="gini = 0.0\nsamples = 23\nvalue = [0, 23]"] ;
804 -> 805 ;
806 [label="request_url <= 0.0\ngini = 0.408\nsamples = 14\nvalue = [4, 10]"] ;
804 -> 806 ;
807 [label="popupwindow <= 0.0\ngini = 0.48\nsamples = 5\nvalue = [3, 2]"] ;
806 -> 807 ;
808 [label="gini = 0.0\nsamples = 2\nvalue = [0, 2]"] ;
807 -> 808 ;
809 [label="gini = 0.0\nsamples = 3\nvalue = [3, 0]"] ;
807 -> 809 ;
810 [label="url_of_anchor <= 0.5\ngini = 0.198\nsamples = 9\nvalue = [1, 8]"] ;
806 -> 810 ;
811 [label="gini = 0.0\nsamples = 6\nvalue = [0, 6]"] ;
810 -> 811 ;
812 [label="iframe <= 0.0\ngini = 0.444\nsamples = 3\nvalue = [1, 2]"] ;
810 -> 812 ;
813 [label="gini = 0.0\nsamples = 1\nvalue = [1, 0]"] ;
812 -> 813 ;
814 [label="gini = 0.0\nsamples = 2\nvalue = [0, 2]"] ;
812 -> 814 ;
815 [label="url_of_anchor <= 0.5\ngini = 0.053\nsamples = 111\nvalue = [3, 108]"] ;
803 -> 815 ;
816 [label="age_of_domain <= 0.0\ngini = 0.107\nsamples = 53\nvalue = [3, 50]"] ;
815 -> 816 ;
817 [label="request_url <= 0.0\ngini = 0.298\nsamples = 11\nvalue = [2, 9]"] ;
816 -> 817 ;
818 [label="gini = 0.0\nsamples = 4\nvalue = [0, 4]"] ;
817 -> 818 ;
819 [label="having_at_symbol <= 0.0\ngini = 0.408\nsamples = 7\nvalue = [2, 5]"] ;
817 -> 819 ;
820 [label="gini = 0.0\nsamples = 2\nvalue = [0, 2]"] ;
819 -> 820 ;
821 [label="gini = 0.48\nsamples = 5\nvalue = [2, 3]"] ;
819 -> 821 ;
822 [label="domain_registration_length <= 0.0\ngini = 0.046\nsamples = 42\nvalue = [1, 41]"] ;
816 -> 822 ;
823 [label="gini = 0.0\nsamples = 35\nvalue = [0, 35]"] ;
822 -> 823 ;
824 [label="gini = 0.245\nsamples = 7\nvalue = [1, 6]"] ;
822 -> 824 ;
825 [label="gini = 0.0\nsamples = 58\nvalue = [0, 58]"] ;
815 -> 825 ;
826 [label="shortining_service <= 0.0\ngini = 0.32\nsamples = 10\nvalue = [2, 8]"] ;
802 -> 826 ;
827 [label="gini = 0.0\nsamples = 4\nvalue = [0, 4]"] ;
826 -> 827 ;
828 [label="url_of_anchor <= 0.5\ngini = 0.444\nsamples = 6\nvalue = [2, 4]"] ;
826 -> 828 ;
829 [label="having_at_symbol <= 0.0\ngini = 0.444\nsamples = 3\nvalue = [2, 1]"] ;
828 -> 829 ;
830 [label="gini = 0.0\nsamples = 1\nvalue = [1, 0]"] ;
829 -> 830 ;
831 [label="having_ip_address <= 0.0\ngini = 0.5\nsamples = 2\nvalue = [1, 1]"] ;
829 -> 831 ;
832 [label="gini = 0.0\nsamples = 1\nvalue = [0, 1]"] ;
831 -> 832 ;
833 [label="gini = 0.0\nsamples = 1\nvalue = [1, 0]"] ;
831 -> 833 ;
834 [label="gini = 0.0\nsamples = 3\nvalue = [0, 3]"] ;
828 -> 834 ;
835 [label="gini = 0.0\nsamples = 278\nvalue = [0, 278]"] ;
719 -> 835 ;
836 [label="having_ip_address <= 0.0\ngini = 0.026\nsamples = 2259\nvalue = [30, 2229]"] ;
718 -> 836 ;
837 [label="having_sub_domain <= 0.5\ngini = 0.065\nsamples = 593\nvalue = [20, 573]"] ;
836 -> 837 ;
838 [label="dnsrecord <= 0.0\ngini = 0.117\nsamples = 304\nvalue = [19, 285]"] ;
837 -> 838 ;
839 [label="url_length <= 0.5\ngini = 0.015\nsamples = 135\nvalue = [1, 134]"] ;
838 -> 839 ;
840 [label="gini = 0.0\nsamples = 116\nvalue = [0, 116]"] ;
839 -> 840 ;
841 [label="sfh <= -0.5\ngini = 0.1\nsamples = 19\nvalue = [1, 18]"] ;
839 -> 841 ;
842 [label="having_at_symbol <= 0.0\ngini = 0.444\nsamples = 3\nvalue = [1, 2]"] ;
841 -> 842 ;
843 [label="gini = 0.0\nsamples = 2\nvalue = [0, 2]"] ;
842 -> 843 ;
844 [label="gini = 0.0\nsamples = 1\nvalue = [1, 0]"] ;
842 -> 844 ;
845 [label="gini = 0.0\nsamples = 16\nvalue = [0, 16]"] ;
841 -> 845 ;
846 [label="age_of_domain <= 0.0\ngini = 0.19\nsamples = 169\nvalue = [18, 151]"] ;
838 -> 846 ;
847 [label="having_sub_domain <= -0.5\ngini = 0.026\nsamples = 76\nvalue = [1, 75]"] ;
846 -> 847 ;
848 [label="gini = 0.0\nsamples = 36\nvalue = [0, 36]"] ;
847 -> 848 ;
849 [label="request_url <= 0.0\ngini = 0.049\nsamples = 40\nvalue = [1, 39]"] ;
847 -> 849 ;
850 [label="gini = 0.0\nsamples = 16\nvalue = [0, 16]"] ;
849 -> 850 ;
851 [label="prefix_suffix <= 0.0\ngini = 0.08\nsamples = 24\nvalue = [1, 23]"] ;
849 -> 851 ;
852 [label="on_mouseover <= 0.0\ngini = 0.117\nsamples = 16\nvalue = [1, 15]"] ;
851 -> 852 ;
853 [label="gini = 0.0\nsamples = 6\nvalue = [0, 6]"] ;
852 -> 853 ;
854 [label="sfh <= -0.5\ngini = 0.18\nsamples = 10\nvalue = [1, 9]"] ;
852 -> 854 ;
855 [label="url_of_anchor <= 0.5\ngini = 0.245\nsamples = 7\nvalue = [1, 6]"] ;
854 -> 855 ;
856 [label="links_in_tags <= 0.5\ngini = 0.278\nsamples = 6\nvalue = [1, 5]"] ;
855 -> 856 ;
857 [label="gini = 0.32\nsamples = 5\nvalue = [1, 4]"] ;
856 -> 857 ;
858 [label="gini = 0.0\nsamples = 1\nvalue = [0, 1]"] ;
856 -> 858 ;
859 [label="gini = 0.0\nsamples = 1\nvalue = [0, 1]"] ;
855 -> 859 ;
860 [label="gini = 0.0\nsamples = 3\nvalue = [0, 3]"] ;
854 -> 860 ;
861 [label="gini = 0.0\nsamples = 8\nvalue = [0, 8]"] ;
851 -> 861 ;
862 [label="having_sub_domain <= -0.5\ngini = 0.299\nsamples = 93\nvalue = [17, 76]"] ;
846 -> 862 ;
863 [label="domain_registration_length <= 0.0\ngini = 0.153\nsamples = 48\nvalue = [4, 44]"] ;
862 -> 863 ;
864 [label="request_url <= 0.0\ngini = 0.049\nsamples = 40\nvalue = [1, 39]"] ;
863 -> 864 ;
865 [label="url_of_anchor <= 0.5\ngini = 0.198\nsamples = 9\nvalue = [1, 8]"] ;
864 -> 865 ;
866 [label="gini = 0.0\nsamples = 6\nvalue = [0, 6]"] ;
865 -> 866 ;
867 [label="links_in_tags <= 0.5\ngini = 0.444\nsamples = 3\nvalue = [1, 2]"] ;
865 -> 867 ;
868 [label="gini = 0.0\nsamples = 2\nvalue = [0, 2]"] ;
867 -> 868 ;
869 [label="gini = 0.0\nsamples = 1\nvalue = [1, 0]"] ;
867 -> 869 ;
870 [label="gini = 0.0\nsamples = 31\nvalue = [0, 31]"] ;
864 -> 870 ;
871 [label="sfh <= -0.5\ngini = 0.469\nsamples = 8\nvalue = [3, 5]"] ;
863 -> 871 ;
872 [label="gini = 0.0\nsamples = 2\nvalue = [2, 0]"] ;
871 -> 872 ;
873 [label="prefix_suffix <= 0.0\ngini = 0.278\nsamples = 6\nvalue = [1, 5]"] ;
871 -> 873 ;
874 [label="gini = 0.0\nsamples = 4\nvalue = [0, 4]"] ;
873 -> 874 ;
875 [label="url_length <= -0.5\ngini = 0.5\nsamples = 2\nvalue = [1, 1]"] ;
873 -> 875 ;
876 [label="gini = 0.0\nsamples = 1\nvalue = [1, 0]"] ;
875 -> 876 ;
877 [label="gini = 0.0\nsamples = 1\nvalue = [0, 1]"] ;
875 -> 877 ;
878 [label="sfh <= -0.5\ngini = 0.411\nsamples = 45\nvalue = [13.0, 32.0]"] ;
862 -> 878 ;
879 [label="iframe <= 0.0\ngini = 0.467\nsamples = 35\nvalue = [13, 22]"] ;
878 -> 879 ;
880 [label="gini = 0.0\nsamples = 7\nvalue = [0, 7]"] ;
879 -> 880 ;
881 [label="url_of_anchor <= 0.5\ngini = 0.497\nsamples = 28\nvalue = [13, 15]"] ;
879 -> 881 ;
882 [label="https_token <= 0.0\ngini = 0.491\nsamples = 23\nvalue = [13.0, 10.0]"] ;
881 -> 882 ;
883 [label="gini = 0.0\nsamples = 3\nvalue = [0, 3]"] ;
882 -> 883 ;
884 [label="prefix_suffix <= 0.0\ngini = 0.455\nsamples = 20\nvalue = [13, 7]"] ;
882 -> 884 ;
885 [label="having_at_symbol <= 0.0\ngini = 0.401\nsamples = 18\nvalue = [13, 5]"] ;
884 -> 885 ;
886 [label="gini = 0.0\nsamples = 3\nvalue = [3, 0]"] ;
885 -> 886 ;
887 [label="popupwindow <= 0.0\ngini = 0.444\nsamples = 15\nvalue = [10, 5]"] ;
885 -> 887 ;
888 [label="gini = 0.0\nsamples = 1\nvalue = [0, 1]"] ;
887 -> 888 ;
889 [label="url_length <= 0.0\ngini = 0.408\nsamples = 14\nvalue = [10, 4]"] ;
887 -> 889 ;
890 [label="request_url <= 0.0\ngini = 0.375\nsamples = 12\nvalue = [9, 3]"] ;
889 -> 890 ;
891 [label="gini = 0.0\nsamples = 1\nvalue = [1, 0]"] ;
890 -> 891 ;
892 [label="links_in_tags <= 0.5\ngini = 0.397\nsamples = 11\nvalue = [8, 3]"] ;
890 -> 892 ;
893 [label="domain_registration_length <= 0.0\ngini = 0.375\nsamples = 8\nvalue = [6, 2]"] ;
892 -> 893 ;
894 [label="gini = 0.32\nsamples = 5\nvalue = [4, 1]"] ;
893 -> 894 ;
895 [label="gini = 0.444\nsamples = 3\nvalue = [2, 1]"] ;
893 -> 895 ;
896 [label="gini = 0.444\nsamples = 3\nvalue = [2, 1]"] ;
892 -> 896 ;
897 [label="shortining_service <= 0.0\ngini = 0.5\nsamples = 2\nvalue = [1, 1]"] ;
889 -> 897 ;
898 [label="gini = 0.0\nsamples = 1\nvalue = [1, 0]"] ;
897 -> 898 ;
899 [label="gini = 0.0\nsamples = 1\nvalue = [0, 1]"] ;
897 -> 899 ;
900 [label="gini = 0.0\nsamples = 2\nvalue = [0, 2]"] ;
884 -> 900 ;
901 [label="gini = 0.0\nsamples = 5\nvalue = [0, 5]"] ;
881 -> 901 ;
902 [label="gini = 0.0\nsamples = 10\nvalue = [0, 10]"] ;
878 -> 902 ;
903 [label="iframe <= 0.0\ngini = 0.007\nsamples = 289\nvalue = [1, 288]"] ;
837 -> 903 ;
904 [label="domain_registration_length <= 0.0\ngini = 0.045\nsamples = 43\nvalue = [1, 42]"] ;
903 -> 904 ;
905 [label="gini = 0.0\nsamples = 36\nvalue = [0, 36]"] ;
904 -> 905 ;
906 [label="age_of_domain <= 0.0\ngini = 0.245\nsamples = 7\nvalue = [1, 6]"] ;
904 -> 906 ;
907 [label="gini = 0.0\nsamples = 5\nvalue = [0, 5]"] ;
906 -> 907 ;
908 [label="abnormal_url <= 0.0\ngini = 0.5\nsamples = 2\nvalue = [1, 1]"] ;
906 -> 908 ;
909 [label="gini = 0.0\nsamples = 1\nvalue = [0, 1]"] ;
908 -> 909 ;
910 [label="gini = 0.0\nsamples = 1\nvalue = [1, 0]"] ;
908 -> 910 ;
911 [label="gini = 0.0\nsamples = 246\nvalue = [0, 246]"] ;
903 -> 911 ;
912 [label="url_of_anchor <= 0.5\ngini = 0.012\nsamples = 1666\nvalue = [10, 1656]"] ;
836 -> 912 ;
913 [label="sfh <= -0.5\ngini = 0.02\nsamples = 970\nvalue = [10, 960]"] ;
912 -> 913 ;
914 [label="on_mouseover <= 0.0\ngini = 0.031\nsamples = 629\nvalue = [10, 619]"] ;
913 -> 914 ;
915 [label="domain_registration_length <= 0.0\ngini = 0.095\nsamples = 60\nvalue = [3, 57]"] ;
914 -> 915 ;
916 [label="gini = 0.0\nsamples = 48\nvalue = [0, 48]"] ;
915 -> 916 ;
917 [label="prefix_suffix <= 0.0\ngini = 0.375\nsamples = 12\nvalue = [3, 9]"] ;
915 -> 917 ;
918 [label="url_length <= 0.0\ngini = 0.48\nsamples = 5\nvalue = [3, 2]"] ;
917 -> 918 ;
919 [label="gini = 0.0\nsamples = 3\nvalue = [3, 0]"] ;
918 -> 919 ;
920 [label="gini = 0.0\nsamples = 2\nvalue = [0, 2]"] ;
918 -> 920 ;
921 [label="gini = 0.0\nsamples = 7\nvalue = [0, 7]"] ;
917 -> 921 ;
922 [label="having_at_symbol <= 0.0\ngini = 0.024\nsamples = 569\nvalue = [7, 562]"] ;
914 -> 922 ;
923 [label="having_sub_domain <= 0.5\ngini = 0.081\nsamples = 47\nvalue = [2, 45]"] ;
922 -> 923 ;
924 [label="age_of_domain <= 0.0\ngini = 0.188\nsamples = 19\nvalue = [2, 17]"] ;
923 -> 924 ;
925 [label="gini = 0.0\nsamples = 9\nvalue = [0, 9]"] ;
924 -> 925 ;
926 [label="links_in_tags <= 0.5\ngini = 0.32\nsamples = 10\nvalue = [2, 8]"] ;
924 -> 926 ;
927 [label="gini = 0.0\nsamples = 6\nvalue = [0, 6]"] ;
926 -> 927 ;
928 [label="request_url <= 0.0\ngini = 0.5\nsamples = 4\nvalue = [2, 2]"] ;
926 -> 928 ;
929 [label="gini = 0.0\nsamples = 2\nvalue = [0, 2]"] ;
928 -> 929 ;
930 [label="gini = 0.0\nsamples = 2\nvalue = [2, 0]"] ;
928 -> 930 ;
931 [label="gini = 0.0\nsamples = 28\nvalue = [0, 28]"] ;
923 -> 931 ;
932 [label="request_url <= 0.0\ngini = 0.019\nsamples = 522\nvalue = [5, 517]"] ;
922 -> 932 ;
933 [label="domain_registration_length <= 0.0\ngini = 0.035\nsamples = 167\nvalue = [3, 164]"] ;
932 -> 933 ;
934 [label="having_sub_domain <= 0.5\ngini = 0.07\nsamples = 55\nvalue = [2, 53]"] ;
933 -> 934 ;
935 [label="links_in_tags <= 0.5\ngini = 0.114\nsamples = 33\nvalue = [2, 31]"] ;
934 -> 935 ;
936 [label="submitting_to_email <= 0.0\ngini = 0.165\nsamples = 22\nvalue = [2, 20]"] ;
935 -> 936 ;
937 [label="gini = 0.0\nsamples = 2\nvalue = [0, 2]"] ;
936 -> 937 ;
938 [label="dnsrecord <= 0.0\ngini = 0.18\nsamples = 20\nvalue = [2, 18]"] ;
936 -> 938 ;
939 [label="having_sub_domain <= -0.5\ngini = 0.278\nsamples = 6\nvalue = [1, 5]"] ;
938 -> 939 ;
940 [label="gini = 0.0\nsamples = 1\nvalue = [1, 0]"] ;
939 -> 940 ;
941 [label="gini = 0.0\nsamples = 5\nvalue = [0, 5]"] ;
939 -> 941 ;
942 [label="age_of_domain <= 0.0\ngini = 0.133\nsamples = 14\nvalue = [1, 13]"] ;
938 -> 942 ;
943 [label="gini = 0.0\nsamples = 9\nvalue = [0, 9]"] ;
942 -> 943 ;
944 [label="having_sub_domain <= -0.5\ngini = 0.32\nsamples = 5\nvalue = [1, 4]"] ;
942 -> 944 ;
945 [label="gini = 0.0\nsamples = 4\nvalue = [0, 4]"] ;
944 -> 945 ;
946 [label="gini = 0.0\nsamples = 1\nvalue = [1, 0]"] ;
944 -> 946 ;
947 [label="gini = 0.0\nsamples = 11\nvalue = [0, 11]"] ;
935 -> 947 ;
948 [label="gini = 0.0\nsamples = 22\nvalue = [0, 22]"] ;
934 -> 948 ;
949 [label="having_sub_domain <= 0.5\ngini = 0.018\nsamples = 112\nvalue = [1, 111]"] ;
933 -> 949 ;
950 [label="gini = 0.0\nsamples = 73\nvalue = [0, 73]"] ;
949 -> 950 ;
951 [label="links_in_tags <= 0.5\ngini = 0.05\nsamples = 39\nvalue = [1, 38]"] ;
949 -> 951 ;
952 [label="gini = 0.0\nsamples = 22\nvalue = [0, 22]"] ;
951 -> 952 ;
953 [label="dnsrecord <= 0.0\ngini = 0.111\nsamples = 17\nvalue = [1, 16]"] ;
951 -> 953 ;
954 [label="gini = 0.0\nsamples = 9\nvalue = [0, 9]"] ;
953 -> 954 ;
955 [label="prefix_suffix <= 0.0\ngini = 0.219\nsamples = 8\nvalue = [1, 7]"] ;
953 -> 955 ;
956 [label="gini = 0.32\nsamples = 5\nvalue = [1, 4]"] ;
955 -> 956 ;
957 [label="gini = 0.0\nsamples = 3\nvalue = [0, 3]"] ;
955 -> 957 ;
958 [label="having_sub_domain <= 0.5\ngini = 0.011\nsamples = 355\nvalue = [2, 353]"] ;
932 -> 958 ;
959 [label="having_sub_domain <= -0.5\ngini = 0.017\nsamples = 228\nvalue = [2, 226]"] ;
958 -> 959 ;
960 [label="gini = 0.0\nsamples = 124\nvalue = [0, 124]"] ;
959 -> 960 ;
961 [label="age_of_domain <= 0.0\ngini = 0.038\nsamples = 104\nvalue = [2, 102]"] ;
959 -> 961 ;
962 [label="gini = 0.0\nsamples = 75\nvalue = [0, 75]"] ;
961 -> 962 ;
963 [label="links_in_tags <= 0.5\ngini = 0.128\nsamples = 29\nvalue = [2, 27]"] ;
961 -> 963 ;
964 [label="prefix_suffix <= 0.0\ngini = 0.077\nsamples = 25\nvalue = [1, 24]"] ;
963 -> 964 ;
965 [label="dnsrecord <= 0.0\ngini = 0.133\nsamples = 14\nvalue = [1, 13]"] ;
964 -> 965 ;
966 [label="gini = 0.0\nsamples = 5\nvalue = [0, 5]"] ;
965 -> 966 ;
967 [label="domain_registration_length <= 0.0\ngini = 0.198\nsamples = 9\nvalue = [1, 8]"] ;
965 -> 967 ;
968 [label="favicon <= 0.0\ngini = 0.219\nsamples = 8\nvalue = [1, 7]"] ;
967 -> 968 ;
969 [label="gini = 0.0\nsamples = 1\nvalue = [0, 1]"] ;
968 -> 969 ;
970 [label="gini = 0.245\nsamples = 7\nvalue = [1, 6]"] ;
968 -> 970 ;
971 [label="gini = 0.0\nsamples = 1\nvalue = [0, 1]"] ;
967 -> 971 ;
972 [label="gini = 0.0\nsamples = 11\nvalue = [0, 11]"] ;
964 -> 972 ;
973 [label="url_length <= 0.0\ngini = 0.375\nsamples = 4\nvalue = [1, 3]"] ;
963 -> 973 ;
974 [label="https_token <= 0.0\ngini = 0.5\nsamples = 2\nvalue = [1, 1]"] ;
973 -> 974 ;
975 [label="gini = 0.0\nsamples = 1\nvalue = [0, 1]"] ;
974 -> 975 ;
976 [label="gini = 0.0\nsamples = 1\nvalue = [1, 0]"] ;
974 -> 976 ;
977 [label="gini = 0.0\nsamples = 2\nvalue = [0, 2]"] ;
973 -> 977 ;
978 [label="gini = 0.0\nsamples = 127\nvalue = [0, 127]"] ;
958 -> 978 ;
979 [label="gini = 0.0\nsamples = 341\nvalue = [0, 341]"] ;
913 -> 979 ;
980 [label="gini = 0.0\nsamples = 696\nvalue = [0, 696]"] ;
912 -> 980 ;
}